{"learner":{"attributes":{"scikit_learn":"{\"_estimator_type\": \"classifier\"}"},"feature_names":[],"feature_types":[],"gradient_booster":{"model":{"gbtree_model_param":{"num_parallel_tree":"1","num_trees":"600"},"iteration_indptr":[0,6,12,18,24,30,36,42,48,54,60,66,72,78,84,90,96,102,108,114,120,126,132,138,144,150,156,162,168,174,180,186,192,198,204,210,216,222,228,234,240,246,252,258,264,270,276,282,288,294,300,306,312,318,324,330,336,342,348,354,360,366,372,378,384,390,396,402,408,414,420,426,432,438,444,450,456,462,468,474,480,486,492,498,504,510,516,522,528,534,540,546,552,558,564,570,576,582,588,594,600],"tree_info":[0,1,2,3,4,5,0,1,2,3,4,5,0,1,2,3,4,5,0,1,2,3,4,5,0,1,2,3,4,5,0,1,2,3,4,5,0,1,2,3,4,5,0,1,2,3,4,5,0,1,2,3,4,5,0,1,2,3,4,5,0,1,2,3,4,5,0,1,2,3,4,5,0,1,2,3,4,5,0,1,2,3,4,5,0,1,2,3,4,5,0,1,2,3,4,5,0,1,2,3,4,5,0,1,2,3,4,5,0,1,2,3,4,5,0,1,2,3,4,5,0,1,2,3,4,5,0,1,2,3,4,5,0,1,2,3,4,5,0,1,2,3,4,5,0,1,2,3,4,5,0,1,2,3,4,5,0,1,2,3,4,5,0,1,2,3,4,5,0,1,2,3,4,5,0,1,2,3,4,5,0,1,2,3,4,5,0,1,2,3,4,5,0,1,2,3,4,5,0,1,2,3,4,5,0,1,2,3,4,5,0,1,2,3,4,5,0,1,2,3,4,5,0,1,2,3,4,5,0,1,2,3,4,5,0,1,2,3,4,5,0,1,2,3,4,5,0,1,2,3,4,5,0,1,2,3,4,5,0,1,2,3,4,5,0,1,2,3,4,5,0,1,2,3,4,5,0,1,2,3,4,5,0,1,2,3,4,5,0,1,2,3,4,5,0,1,2,3,4,5,0,1,2,3,4,5,0,1,2,3,4,5,0,1,2,3,4,5,0,1,2,3,4,5,0,1,2,3,4,5,0,1,2,3,4,5,0,1,2,3,4,5,0,1,2,3,4,5,0,1,2,3,4,5,0,1,2,3,4,5,0,1,2,3,4,5,0,1,2,3,4,5,0,1,2,3,4,5,0,1,2,3,4,5,0,1,2,3,4,5,0,1,2,3,4,5,0,1,2,3,4,5,0,1,2,3,4,5,0,1,2,3,4,5,0,1,2,3,4,5,0,1,2,3,4,5,0,1,2,3,4,5,0,1,2,3,4,5,0,1,2,3,4,5,0,1,2,3,4,5,0,1,2,3,4,5,0,1,2,3,4,5,0,1,2,3,4,5,0,1,2,3,4,5,0,1,2,3,4,5,0,1,2,3,4,5,0,1,2,3,4,5,0,1,2,3,4,5,0,1,2,3,4,5,0,1,2,3,4,5,0,1,2,3,4,5,0,1,2,3,4,5,0,1,2,3,4,5,0,1,2,3,4,5,0,1,2,3,4,5,0,1,2,3,4,5,0,1,2,3,4,5,0,1,2,3,4,5,0,1,2,3,4,5,0,1,2,3,4,5,0,1,2,3,4,5,0,1,2,3,4,5,0,1,2,3,4,5,0,1,2,3,4,5,0,1,2,3,4,5],"trees":[{"base_weights":[-2.681225E-8,-4.4306618E-1,2.6983964E0,-5.0329334E-1,1.2036167E0,2.9492002E0,-2.2912967E-1,-5.3030753E-1,1.6100385E0,2.8359373E0,-5.12786E-1,2.9687843E0,-3.9622642E-2,-5.7852883E-2,2.076923E-1,-5.5184555E-1,6.425647E-1,2.7297297E0,-3.6945814E-1,2.9268292E-1,3.7499998E-2,9.069767E-2,-5.849582E-2,1.5789472E-2,2.9772258E0,-5.590431E-1,2.0442476E0,1.7175571E0,-5.698324E-2,2.827476E-1,6.315789E-2,6.315789E-2,-5.4098364E-2,9.622641E-2,2.985687E-1,-5.690736E-1,7.109002E-2,2.4193548E-1,1.5789472E-2,1.1520911E0,2.5135133E-1,-2.0395552E-1,-5.8469445E-1,2.1879697E0,-4.7490346E-1,1.4423076E0,4.1095868E-2,-3.5732985E-1,1.9999999E0,-5.856535E-1,4.8837207E-2,2.5221238E-1,1.5789472E-2,1.10526316E-1,-5.7831325E-2,1.5789472E-2,1.5638297E0,-3.9622642E-2,6.315789E-2,2.3702027E-1,-5.9020855E-2,1.5789472E-2,2.3863636E-1,-5.9067875E-1,-4.3134087E-1,1.7468354E0,3.7499998E-2,1.1271676E0,-3.125E-1,-9.677421E-2,-5.9166366E-1,1.1470587E0,-5.151515E-1,2.0816326E0,9.230769E-2,-4.2857144E-2,1.7343749E-1,7.4999996E-2,-4.883721E-2,-4.520548E-2,6.315789E-2,-5.9408713E-2,-4.160584E-2,1.8749999E-1,-3.1578947E-2,6.2264144E-2,-5.5941023E-2,2.307692E-1,6.315789E-2],"categories":[],"categories_nodes":[],"categories_segments":[],"categories_sizes":[],"default_left":[0,0,0,0,0,0,0,0,0,0,0,0,0,0,0,0,0,0,0,0,0,0,0,0,0,0,0,0,0,0,0,0,0,0,0,0,0,0,0,0,0,0,0,0,0,0,0,0,0,0,0,0,0,0,0,0,0,0,0,0,0,0,0,0,0,0,0,0,0,0,0,0,0,0,0,0,0,0,0,0,0,0,0,0,0,0,0,0,0],"id":0,"left_children":[1,3,5,7,9,11,13,15,17,19,21,23,-1,-1,-1,25,27,29,31,-1,-1,-1,-1,-1,33,35,37,39,-1,-1,-1,-1,-1,-1,-1,41,43,-1,-1,45,-1,47,49,51,53,55,57,59,61,63,-1,-1,-1,-1,-1,-1,65,-1,-1,67,-1,-1,-1,69,71,73,-1,75,77,79,81,83,85,87,-1,-1,-1,-1,-1,-1,-1,-1,-1,-1,-1,-1,-1,-1,-1],"loss_changes":[3.2603147E3,2.3291226E2,2.8307056E2,1.2990253E2,2.3384131E2,2.439087E1,2.6403091E1,5.675476E1,6.47923E1,8.446075E0,4.760171E0,7.8913574E0,0E0,0E0,0E0,4.211914E1,5.405271E1,2.0083313E0,2.2781062E0,0E0,0E0,0E0,0E0,0E0,3.116211E0,1.3867737E1,4.060053E0,6.9310913E0,0E0,0E0,0E0,0E0,0E0,0E0,0E0,1.2163086E1,4.1684795E1,0E0,0E0,4.6517754E0,0E0,3.109982E1,2.4107056E0,4.6140823E0,5.3416123E0,1.5567245E0,1.29752E0,1.1889487E1,3.8935356E0,1.3452148E0,0E0,0E0,0E0,0E0,0E0,0E0,1.6172523E0,0E0,0E0,1.2390862E1,0E0,0E0,0E0,9.133911E-1,9.689294E0,4.9933624E-1,0E0,9.822497E0,3.3561046E0,1.6224852E0,6.003418E-1,4.614938E0,3.6718903E0,3.271904E-1,0E0,0E0,0E0,0E0,0E0,0E0,0E0,0E0,0E0,0E0,0E0,0E0,0E0,0E0,0E0],"parents":[2147483647,0,0,1,1,2,2,3,3,4,4,5,5,6,6,7,7,8,8,9,9,10,10,11,11,15,15,16,16,17,17,18,18,24,24,25,25,26,26,27,27,35,35,36,36,39,39,41,41,42,42,43,43,44,44,45,45,46,46,47,47,48,48,49,49,56,56,59,59,63,63,64,64,65,65,67,67,68,68,69,69,70,70,71,71,72,72,73,73],"right_children":[2,4,6,8,10,12,14,16,18,20,22,24,-1,-1,-1,26,28,30,32,-1,-1,-1,-1,-1,34,36,38,40,-1,-1,-1,-1,-1,-1,-1,42,44,-1,-1,46,-1,48,50,52,54,56,58,60,62,64,-1,-1,-1,-1,-1,-1,66,-1,-1,68,-1,-1,-1,70,72,74,-1,76,78,80,82,84,86,88,-1,-1,-1,-1,-1,-1,-1,-1,-1,-1,-1,-1,-1,-1,-1],"split_conditions":[3.6361644E-1,1.8084265E0,1.4182319E-1,4.6123E-1,6.907688E-2,2.4571016E-1,5.53842E-1,4.709642E-1,7.1640864E-2,2.8118685E-1,-7.920152E-2,-8.5381344E-2,-3.9622642E-2,-5.7852883E-2,2.076923E-1,5.5206686E-1,7.39083E-3,1.0436165E-1,-2.113731E-2,2.9268292E-1,3.7499998E-2,9.069767E-2,-5.849582E-2,1.5789472E-2,6.526321E-2,2.9878604E-1,-5.248192E-3,3.3185374E-2,-5.698324E-2,2.827476E-1,6.315789E-2,6.315789E-2,-5.4098364E-2,9.622641E-2,2.985687E-1,2.1898786E-2,-4.0840097E-2,2.4193548E-1,1.5789472E-2,2.1963686E-2,2.5135133E-1,2.75441E-1,4.687981E-1,1.1719227E-2,-7.434689E-2,-1.3508687E-2,-1.8895103E-2,2.6536597E-2,-9.6047506E-2,1.18701234E-1,4.8837207E-2,2.5221238E-1,1.5789472E-2,1.10526316E-1,-5.7831325E-2,1.5789472E-2,4.325195E-3,-3.9622642E-2,6.315789E-2,-8.413265E-2,-5.9020855E-2,1.5789472E-2,2.3863636E-1,-2.0738356E-1,-1.0484723E-1,0E0,3.7499998E-2,5.873105E-2,-1.6070138E-1,-2.8477283E-3,1.2606729E0,9.083532E-3,-1.1136857E-1,-2.6596488E-2,9.230769E-2,-4.2857144E-2,1.7343749E-1,7.4999996E-2,-4.883721E-2,-4.520548E-2,6.315789E-2,-5.9408713E-2,-4.160584E-2,1.8749999E-1,-3.1578947E-2,6.2264144E-2,-5.5941023E-2,2.307692E-1,6.315789E-2],"split_indices":[549,209,348,303,66,180,97,250,180,556,298,473,0,0,0,220,381,63,18,0,0,0,0,0,332,303,33,97,0,0,0,0,0,0,0,433,505,0,0,113,0,250,220,195,489,34,2,558,79,239,0,0,0,0,0,0,389,0,0,275,0,0,0,284,257,51,0,402,469,18,209,18,284,381,0,0,0,0,0,0,0,0,0,0,0,0,0,0,0],"split_type":[0,0,0,0,0,0,0,0,0,0,0,0,0,0,0,0,0,0,0,0,0,0,0,0,0,0,0,0,0,0,0,0,0,0,0,0,0,0,0,0,0,0,0,0,0,0,0,0,0,0,0,0,0,0,0,0,0,0,0,0,0,0,0,0,0,0,0,0,0,0,0,0,0,0,0,0,0,0,0,0,0,0,0,0,0,0,0,0,0],"sum_hessian":[2.7250002E3,2.341389E3,3.836111E2,2.2594446E3,8.194445E1,3.5333334E2,3.0277779E1,2.2316667E3,2.7777779E1,4.1666668E1,4.027778E1,3.5138892E2,1.9444445E0,2.6944447E1,3.3333335E0,2.1919446E3,3.9722225E1,1.75E1,1.0277779E1,4E1,1.6666667E0,1.388889E0,3.888889E1,1.1111112E0,3.502778E2,2.1866667E3,5.277778E0,2.0833334E1,1.888889E1,1.638889E1,1.1111112E0,1.1111112E0,9.166667E0,1.9444445E0,3.4833334E2,2.1525E3,3.4166668E1,4.166667E0,1.1111112E0,1.3611112E1,7.2222223E0,8.888889E1,2.0636113E3,6.3888893E0,2.7777779E1,1.0555556E1,3.0555558E0,8.388889E1,5E0,2.0622224E3,1.388889E0,5.277778E0,1.1111112E0,1.1111112E0,2.6666668E1,1.1111112E0,9.444445E0,1.9444445E0,1.1111112E0,2.3611113E1,6.0277782E1,1.1111112E0,3.888889E0,1.9944446E3,6.777778E1,7.777778E0,1.6666667E0,8.611112E0,1.5000001E1,4.166667E0,1.9902778E3,2.777778E0,6.5E1,4.4444447E0,3.3333335E0,2.5E0,6.1111116E0,1.6666667E0,1.3333334E1,3.0555558E0,1.1111112E0,1.9608334E3,2.9444447E1,1.6666667E0,1.1111112E0,1.9444445E0,6.3055557E1,3.3333335E0,1.1111112E0],"tree_param":{"num_deleted":"0","num_feature":"576","num_nodes":"89","size_leaf_vector":"1"}},{"base_weights":[-2.681225E-8,-5.2799654E-1,2.843132E0,-5.711629E-1,1.073193E0,2.9468668E0,-4.1501975E-1,-5.8003134E-1,2.0869563E0,2.3605683E0,-2.8467155E-1,2.9853518E0,-4.897959E-2,-5.5364806E-2,6.315789E-2,-5.915032E-1,-1.4669952E-2,-3.1578947E-2,2.5423726E-1,2.7364016E0,2.0388347E-1,-5.07874E-1,1.7586206E-1,2.992656E-1,1.5789472E-2,1.8749997E-1,-5.9376985E-1,2.5609756E-1,-4.5862553E-1,2.8410596E-1,4.8837207E-2,1.1249999E-1,-4.520548E-2,4.8837207E-2,-5.7763975E-2,-4.9514562E-2,1.744186E-1,-5.974056E-1,-2.6200876E-1,1.3018867E-1,-5.840708E-2,-1.4285715E-1,-5.978664E-1,2.0689654E-1,-5.7416268E-2,-3.488372E-2,1.5789472E-2,-1.4285715E-1,-5.983283E-1,-3.488372E-2,1.5789472E-2,-2.0547946E-1,-5.9879094E-2,1.5789472E-2,-3.9622642E-2],"categories":[],"categories_nodes":[],"categories_segments":[],"categories_sizes":[],"default_left":[0,0,0,0,0,0,0,0,0,0,0,0,0,0,0,0,0,0,0,0,0,0,0,0,0,0,0,0,0,0,0,0,0,0,0,0,0,0,0,0,0,0,0,0,0,0,0,0,0,0,0,0,0,0,0],"id":1,"left_children":[1,3,5,7,9,11,13,15,17,19,21,23,-1,-1,-1,25,27,-1,-1,29,31,33,-1,-1,-1,35,37,-1,39,-1,-1,-1,-1,-1,-1,-1,-1,41,43,-1,-1,45,47,-1,-1,-1,-1,49,51,-1,-1,53,-1,-1,-1],"loss_changes":[4.0936736E3,1.595755E2,1.4557983E2,5.4019043E1,1.0681936E2,5.6224854E1,2.3889678E0,1.4477173E1,9.192104E0,2.4794418E1,1.4777891E1,7.9868164E0,0E0,0E0,0E0,3.9766846E0,5.313899E1,0E0,0E0,4.860321E0,3.9659028E0,2.2436562E0,0E0,0E0,0E0,8.420355E0,2.4765625E0,0E0,9.508426E0,0E0,0E0,0E0,0E0,0E0,0E0,0E0,0E0,3.6669922E-1,1.970188E1,0E0,0E0,2.7190065E-1,3.6761475E-1,0E0,0E0,0E0,0E0,2.7190065E-1,2.6818848E-1,0E0,0E0,3.4366286E-1,0E0,0E0,0E0],"parents":[2147483647,0,0,1,1,2,2,3,3,4,4,5,5,6,6,7,7,8,8,9,9,10,10,11,11,15,15,16,16,19,19,20,20,21,21,25,25,26,26,28,28,37,37,38,38,41,41,42,42,47,47,48,48,51,51],"right_children":[2,4,6,8,10,12,14,16,18,20,22,24,-1,-1,-1,26,28,-1,-1,30,32,34,-1,-1,-1,36,38,-1,40,-1,-1,-1,-1,-1,-1,-1,-1,42,44,-1,-1,46,48,-1,-1,-1,-1,50,52,-1,-1,54,-1,-1,-1],"split_conditions":[4.3776327E-1,3.8506064E-1,1.2382287E-1,3.651178E-1,5.153608E-3,2.6989284E-1,6.3668513E-1,3.205576E-1,2.1421565E-1,0E0,1.4486777E0,1.6556339E-1,-4.897959E-2,-5.5364806E-2,6.315789E-2,-1.7546125E-1,-1.0123784E-1,-3.1578947E-2,2.5423726E-1,-4.7151293E-3,-5.533552E-3,-8.057009E-2,1.7586206E-1,2.992656E-1,1.5789472E-2,-1.2579808E-2,7.2987634E-1,2.5609756E-1,-1.0962886E-1,2.8410596E-1,4.8837207E-2,1.1249999E-1,-4.520548E-2,4.8837207E-2,-5.7763975E-2,-4.9514562E-2,1.744186E-1,-2.3468219E-1,-9.763727E-2,1.3018867E-1,-5.840708E-2,-4.322448E-2,-1.404867E-1,2.0689654E-1,-5.7416268E-2,-3.488372E-2,1.5789472E-2,-5.273631E-2,-2.0599511E-1,-3.488372E-2,1.5789472E-2,-7.032991E-2,-5.9879094E-2,1.5789472E-2,-3.9622642E-2],"split_indices":[453,8,348,233,193,227,2,152,32,437,531,31,0,0,0,454,227,0,0,409,448,47,0,0,0,6,73,0,385,0,0,0,0,0,0,0,0,169,321,0,0,0,217,0,0,0,0,0,537,0,0,0,0,0,0],"split_type":[0,0,0,0,0,0,0,0,0,0,0,0,0,0,0,0,0,0,0,0,0,0,0,0,0,0,0,0,0,0,0,0,0,0,0,0,0,0,0,0,0,0,0,0,0,0,0,0,0,0,0,0,0,0,0],"sum_hessian":[2.7250002E3,2.298889E3,4.2611115E2,2.2391667E3,5.9722225E1,4.1305557E2,1.3055556E1,2.2325E3,6.666667E0,3.0277779E1,2.9444447E1,4.0861115E2,4.4444447E0,1.1944445E1,1.1111112E0,2.1880557E3,4.4444447E1,1.1111112E0,5.555556E0,2.5555557E1,4.7222223E0,2.7222223E1,2.2222223E0,4.0750003E2,1.1111112E0,6.1111116E0,2.1819446E3,5.8333335E0,3.8611115E1,2.4166668E1,1.388889E0,1.6666667E0,3.0555558E0,1.388889E0,2.5833334E1,4.7222223E0,1.388889E0,2.1575E3,2.4444447E1,1.9444445E0,3.6666668E1,2.5E0,2.155E3,2.2222223E0,2.2222223E1,1.388889E0,1.1111112E0,2.5E0,2.1525E3,1.388889E0,1.1111112E0,3.0555558E0,2.1494446E3,1.1111112E0,1.9444445E0],"tree_param":{"num_deleted":"0","num_feature":"576","num_nodes":"55","size_leaf_vector":"1"}},{"base_weights":[-2.681225E-8,-4.804107E-1,2.7485962E0,8.5631955E-1,-5.6895757E-1,2.8942387E0,-3.586006E-1,-4.2253546E-2,2.3259108E0,-5.7349557E-1,1.3469387E0,2.9605145E0,-3.0379748E-1,1.1249999E-1,-5.654952E-2,-5.125184E-1,2.1399317E0,1.468085E0,2.8765008E-1,-5.771417E-1,1.3846153E0,2.2058824E-1,-3.75E-2,2.9761868E0,-5.660379E-3,-5.2173913E-2,6.315789E-2,8.275862E-1,-5.644916E-1,2.5731223E0,-4.1379314E-2,1.7453082E0,-4.411765E-2,-5.8256924E-1,3.145161E-1,2.0689654E-1,-3.1578947E-2,2.986702E-1,6.2264144E-2,1.5789473E-1,-3.1578947E-2,-5.916149E-2,3.7499998E-2,2.7631578E-1,4.8837207E-2,2.259259E0,6.8918914E-1,-5.871222E-1,1.11940265E-1,1.3220338E0,-5.2702703E-2,2.4220183E0,4.8837207E-2,-1.764706E-1,1.1632652E0,-5.885145E-1,9.069767E-2,1.5681818E0,-5.454546E-2,6.9767423E-3,1.6451612E0,6.315789E-2,2.5454543E0,-3.75E-2,1.5789472E-2,1.5205479E-1,6.9767423E-3,-5.9261787E-1,-2.757974E-1,2.2058824E-1,-3.1578947E-2,6.2264144E-2,2.0689654E-1,2.6878613E-1,9.069767E-2,-5.949601E-1,-9.090911E-2,1.7671232E-1,-5.7740588E-2,-5.95904E-1,-3.6144596E-2,-5.3757228E-2,1.744186E-1,-5.9777528E-2,-4.60371E-2,6.315789E-2,-4.2857144E-2],"categories":[],"categories_nodes":[],"categories_segments":[],"categories_sizes":[],"default_left":[0,0,0,0,0,0,0,0,0,0,0,0,0,0,0,0,0,0,0,0,0,0,0,0,0,0,0,0,0,0,0,0,0,0,0,0,0,0,0,0,0,0,0,0,0,0,0,0,0,0,0,0,0,0,0,0,0,0,0,0,0,0,0,0,0,0,0,0,0,0,0,0,0,0,0,0,0,0,0,0,0,0,0,0,0,0,0],"id":2,"left_children":[1,3,5,7,9,11,13,15,17,19,21,23,25,-1,-1,27,29,31,-1,33,35,-1,-1,37,-1,-1,-1,39,41,43,-1,45,-1,47,49,-1,-1,-1,-1,-1,-1,-1,-1,-1,-1,51,53,55,57,59,-1,61,-1,63,65,67,-1,69,-1,-1,71,-1,73,-1,-1,-1,-1,75,77,-1,-1,-1,-1,-1,-1,79,81,-1,-1,83,85,-1,-1,-1,-1,-1,-1],"loss_changes":[3.6008809E3,2.752414E2,1.8464355E2,1.9106232E2,1.970575E1,8.306592E1,6.4852657E0,9.419635E1,2.170166E1,1.631482E1,8.879801E0,1.8131836E1,2.1189353E0,0E0,0E0,5.721838E0,1.9072037E1,1.3208347E1,0E0,1.0684509E1,5.695937E0,0E0,0E0,7.4936523E0,0E0,0E0,0E0,3.2667875E0,2.0877113E0,4.21904E0,0E0,9.690819E0,0E0,6.8865967E0,1.2378508E1,0E0,0E0,0E0,0E0,0E0,0E0,0E0,0E0,0E0,0E0,2.7082443E0,3.5795882E0,4.9922485E0,1.5108887E1,2.5378704E0,0E0,1.0689545E0,0E0,3.099845E-1,2.0209932E0,2.5849E0,0E0,6.5701504E0,0E0,0E0,9.507427E-1,0E0,1.2880707E-1,0E0,0E0,0E0,0E0,2.4291382E0,1.9265593E1,0E0,0E0,0E0,0E0,0E0,0E0,1.0878296E0,9.95399E0,0E0,0E0,2.5738525E-1,1.4789383E0,0E0,0E0,0E0,0E0,0E0,0E0],"parents":[2147483647,0,0,1,1,2,2,3,3,4,4,5,5,6,6,7,7,8,8,9,9,10,10,11,11,12,12,15,15,16,16,17,17,19,19,20,20,23,23,27,27,28,28,29,29,31,31,33,33,34,34,45,45,46,46,47,47,48,48,49,49,51,51,53,53,54,54,55,55,57,57,60,60,62,62,67,67,68,68,75,75,76,76,79,79,80,80],"right_children":[2,4,6,8,10,12,14,16,18,20,22,24,26,-1,-1,28,30,32,-1,34,36,-1,-1,38,-1,-1,-1,40,42,44,-1,46,-1,48,50,-1,-1,-1,-1,-1,-1,-1,-1,-1,-1,52,54,56,58,60,-1,62,-1,64,66,68,-1,70,-1,-1,72,-1,74,-1,-1,-1,-1,76,78,-1,-1,-1,-1,-1,-1,80,82,-1,-1,84,86,-1,-1,-1,-1,-1,-1],"split_conditions":[1.5339844E-1,-9.031979E-3,2.5800937E-1,2.2890912E-1,3.881283E-1,1.4277104E-1,-2.6754254E-2,7.875847E-2,7.696461E-3,3.76582E-1,-1.4791535E-2,1.0394612E-1,6.089339E-2,1.1249999E-1,-5.654952E-2,-1.7130509E-2,9.605775E-1,-7.977555E-3,2.8765008E-1,9.616297E-1,2.5802748E-2,2.2058824E-1,-3.75E-2,2.223958E-1,-5.660379E-3,-5.2173913E-2,6.315789E-2,-4.8430894E-2,2.107531E-2,7.91484E-2,-4.1379314E-2,7.21156E-2,-4.411765E-2,2.9118043E-1,5.1403582E-2,2.0689654E-1,-3.1578947E-2,2.986702E-1,6.2264144E-2,1.5789473E-1,-3.1578947E-2,-5.916149E-2,3.7499998E-2,2.7631578E-1,4.8837207E-2,2.1879548E-1,-6.11888E-3,4.0354827E-1,2.400217E-2,-5.2752577E-2,-5.2702703E-2,-1.3140957E-1,4.8837207E-2,-5.785994E-2,-3.4202654E-2,2.4619836E-1,9.069767E-2,4.4962008E-2,-5.454546E-2,6.9767423E-3,2.1986865E-2,6.315789E-2,-7.712722E-3,-3.75E-2,1.5789472E-2,1.5205479E-1,6.9767423E-3,1.4264148E-1,-8.205987E-3,2.2058824E-1,-3.1578947E-2,6.2264144E-2,2.0689654E-1,2.6878613E-1,9.069767E-2,3.1995162E-1,2.819014E-1,1.7671232E-1,-5.7740588E-2,6.2479967E-1,-8.7685816E-2,-5.3757228E-2,1.744186E-1,-5.9777528E-2,-4.60371E-2,6.315789E-2,-4.2857144E-2],"split_indices":[211,267,256,353,348,150,366,19,106,311,1,367,2,0,0,438,81,142,0,353,3,0,0,523,0,0,0,11,126,396,0,187,0,516,110,0,0,0,0,0,0,0,0,0,0,549,70,141,377,188,0,227,0,2,11,216,0,13,0,0,365,0,48,0,0,0,0,438,493,0,0,0,0,0,0,135,109,0,0,353,3,0,0,0,0,0,0],"split_type":[0,0,0,0,0,0,0,0,0,0,0,0,0,0,0,0,0,0,0,0,0,0,0,0,0,0,0,0,0,0,0,0,0,0,0,0,0,0,0,0,0,0,0,0,0,0,0,0,0,0,0,0,0,0,0,0,0,0,0,0,0,0,0,0,0,0,0,0,0,0,0,0,0,0,0,0,0,0,0,0,0,0,0,0,0,0,0],"sum_hessian":[2.7250002E3,2.3202778E3,4.0472223E2,1.4361111E2,2.1766667E3,3.866667E2,1.8055557E1,8.972223E1,5.3888893E1,2.1722224E3,4.4444447E0,3.7888892E2,7.777778E0,1.6666667E0,1.638889E1,7.444445E1,1.5277779E1,2.2500002E1,3.1388891E1,2.168889E3,3.3333335E0,2.777778E0,1.6666667E0,3.7694446E2,1.9444445E0,6.666667E0,1.1111112E0,2.2222223E0,7.222223E1,1.3055556E1,2.2222223E0,1.9722223E1,2.777778E0,2.1561113E3,1.2777779E1,2.2222223E0,1.1111112E0,3.7500003E2,1.9444445E0,1.1111112E0,1.1111112E0,7.055556E1,1.6666667E0,1.1666667E1,1.388889E0,1.2500001E1,7.2222223E0,2.1422224E3,1.3888889E1,5.555556E0,7.2222223E0,1.1111112E1,1.388889E0,2.777778E0,4.4444447E0,2.1408335E3,1.388889E0,3.888889E0,1E1,1.388889E0,4.166667E0,1.1111112E0,1E1,1.6666667E0,1.1111112E0,3.0555558E0,1.388889E0,2.1122224E3,2.8611113E1,2.777778E0,1.1111112E0,1.9444445E0,2.2222223E0,8.611112E0,1.388889E0,2.1022224E3,1E1,3.0555558E0,2.5555557E1,2.0986113E3,3.6111112E0,8.611112E0,1.388889E0,2.0666667E3,3.1944447E1,1.1111112E0,2.5E0],"tree_param":{"num_deleted":"0","num_feature":"576","num_nodes":"87","size_leaf_vector":"1"}},{"base_weights":[-2.681225E-8,-5.123112E-1,2.8415575E0,-5.6586534E-1,1.2786479E0,2.950331E0,-2.9104477E-1,-5.733651E-1,1.7819548E0,2.6283183E0,-4.177215E-1,2.9699914E0,8.823527E-2,-5.5645164E-2,1.5789473E-1,-5.829641E-1,1.1619715E-1,2.4757281E-1,-3.75E-2,2.8853503E-1,-4.411765E-2,8.823529E-1,-5.7852883E-2,2.9824216E0,-1.6763807E-9,6.315789E-2,-3.75E-2,-5.953991E-1,-3.6471665E-1,2.4586466E-1,-5.7615895E-2,1.744186E-1,-3.488372E-2,2.9899272E-1,1.5789472E-2,-2.1126762E-1,-5.9730214E-1,1.0327868E0,-4.8788926E-1,1.3255814E-1,-5.4255318E-2,-5.9778243E-1,6.9767423E-3,2.1666665E0,-4.8387095E-2,-5.227159E-1,1.5789473E-1,-5.982626E-1,-1.0344829E-1,2.3863636E-1,6.315789E-2,6.2264144E-2,-5.487805E-1,-5.9874322E-2,-2.3076925E-1,-3.1578947E-2,1.5789472E-2,-7.5949386E-2,-5.842451E-1,1.5789472E-2,-4.1379314E-2,1.3255814E-1,-5.18797E-2,1.5789472E-2,-5.9402656E-2],"categories":[],"categories_nodes":[],"categories_segments":[],"categories_sizes":[],"default_left":[0,0,0,0,0,0,0,0,0,0,0,0,0,0,0,0,0,0,0,0,0,0,0,0,0,0,0,0,0,0,0,0,0,0,0,0,0,0,0,0,0,0,0,0,0,0,0,0,0,0,0,0,0,0,0,0,0,0,0,0,0,0,0,0,0],"id":3,"left_children":[1,3,5,7,9,11,13,15,17,19,21,23,25,-1,-1,27,29,-1,-1,-1,-1,31,-1,33,-1,-1,-1,35,37,-1,-1,-1,-1,-1,-1,39,41,43,45,-1,-1,47,-1,49,-1,51,-1,53,55,-1,-1,-1,57,-1,59,-1,-1,61,63,-1,-1,-1,-1,-1,-1],"loss_changes":[3.9698628E3,2.2232574E2,1.4279712E2,4.0535156E1,1.5538745E2,2.2395996E1,8.268092E0,1.4879211E1,1.1985409E1,3.0990356E1,6.933299E0,1.4763184E1,1.1876935E0,0E0,0E0,5.772766E0,5.259366E1,0E0,0E0,0E0,0E0,4.6169634E0,0E0,7.9697266E0,0E0,0E0,0E0,1.3990479E0,2.142775E1,0E0,0E0,0E0,0E0,0E0,0E0,6.7439733E0,7.067871E-1,1.853208E1,8.915205E0,0E0,0E0,4.3048096E-1,0E0,5.16346E-1,0E0,3.6636982E0,0E0,2.2790527E-1,2.2867513E-1,0E0,0E0,0E0,1.7890091E0,0E0,3.7358645E-1,0E0,0E0,6.135763E0,8.310089E-1,0E0,0E0,0E0,0E0,0E0,0E0],"parents":[2147483647,0,0,1,1,2,2,3,3,4,4,5,5,6,6,7,7,8,8,9,9,10,10,11,11,12,12,15,15,16,16,21,21,23,23,27,27,28,28,35,35,36,36,37,37,38,38,41,41,43,43,45,45,47,47,48,48,52,52,54,54,57,57,58,58],"right_children":[2,4,6,8,10,12,14,16,18,20,22,24,26,-1,-1,28,30,-1,-1,-1,-1,32,-1,34,-1,-1,-1,36,38,-1,-1,-1,-1,-1,-1,40,42,44,46,-1,-1,48,-1,50,-1,52,-1,54,56,-1,-1,-1,58,-1,60,-1,-1,62,64,-1,-1,-1,-1,-1,-1],"split_conditions":[2.1638839E-1,1.7453218E-1,1.9155195E-1,1.3455043E0,2.7007297E-1,5.469831E-1,3.367966E-1,3.1232888E-1,-4.442251E-2,1.2651642E-1,5.273806E-2,3.398573E-1,-4.7370404E-2,-5.5645164E-2,1.5789473E-1,5.842505E-2,-3.0511929E-2,2.4757281E-1,-3.75E-2,2.8853503E-1,-4.411765E-2,-8.7417016E-4,-5.7852883E-2,1.695477E-1,-1.6763807E-9,6.315789E-2,-3.75E-2,-1.9111246E-1,-5.408902E-2,2.4586466E-1,-5.7615895E-2,1.744186E-1,-3.488372E-2,2.9899272E-1,1.5789472E-2,-8.377476E-2,6.02522E-1,-2.9164046E-2,1.0125291E0,1.3255814E-1,-5.4255318E-2,1.250302E0,6.9767423E-3,-2.772794E-2,-4.8387095E-2,-1.0080986E-1,1.5789473E-1,1.4932427E0,-2.9949674E-2,2.3863636E-1,6.315789E-2,6.2264144E-2,-1.19198136E-1,-5.9874322E-2,1.8362345E-2,-3.1578947E-2,1.5789472E-2,-7.9692096E-2,-1.1829834E-1,1.5789472E-2,-4.1379314E-2,1.3255814E-1,-5.18797E-2,1.5789472E-2,-5.9402656E-2],"split_indices":[246,417,402,456,485,480,417,510,288,19,563,19,0,0,0,246,412,0,0,0,0,9,0,412,0,0,0,558,73,0,0,0,0,0,0,549,305,439,456,0,0,456,0,0,0,8,0,75,0,0,0,0,13,0,0,0,0,193,360,0,0,0,0,0,0],"split_type":[0,0,0,0,0,0,0,0,0,0,0,0,0,0,0,0,0,0,0,0,0,0,0,0,0,0,0,0,0,0,0,0,0,0,0,0,0,0,0,0,0,0,0,0,0,0,0,0,0,0,0,0,0,0,0,0,0,0,0,0,0,0,0,0,0],"sum_hessian":[2.7250002E3,2.3094446E3,4.1555557E2,2.2430557E3,6.638889E1,4.016667E2,1.3888889E1,2.2366667E3,6.3888893E0,3.6666668E1,2.9722223E1,3.9888892E2,2.777778E0,1.2777779E1,1.1111112E0,2.2061113E3,3.0555557E1,4.7222223E0,1.6666667E0,3.388889E1,2.777778E0,2.777778E0,2.6944447E1,3.9722223E2,1.6666667E0,1.1111112E0,1.6666667E0,2.0855557E3,1.20555565E2,6.3888893E0,2.4166668E1,1.388889E0,1.388889E0,3.9611115E2,1.1111112E0,1.0833334E1,2.0747224E3,9.166667E0,1.1138889E2,1.388889E0,9.444445E0,2.0733335E3,1.388889E0,5E0,4.166667E0,1.1027779E2,1.1111112E0,2.0711113E3,2.2222223E0,3.888889E0,1.1111112E0,1.9444445E0,1.08333336E2,2.0677778E3,3.3333335E0,1.1111112E0,1.1111112E0,7.777778E0,1.0055556E2,1.1111112E0,2.2222223E0,1.388889E0,6.3888893E0,1.1111112E0,9.944445E1],"tree_param":{"num_deleted":"0","num_feature":"576","num_nodes":"65","size_leaf_vector":"1"}},{"base_weights":[-2.681225E-8,-5.7107866E-1,2.8234437E0,-5.8642614E-1,1.7910446E0,2.9523807E0,-3.5502958E-1,-5.9172374E-1,9.860139E-1,2.720207E-1,-4.8387095E-2,2.977166E0,-4.520548E-2,-5.660377E-2,1.5789473E-1,-5.9747136E-1,-1.9736843E-1,2.307692E-1,-4.698795E-2,2.9839754E0,1.5789472E-2,-5.9792023E-2,-1.764706E-1,1.5663716E0,-5.7894737E-2,2.9908198E-1,1.5789472E-2,1.5789472E-2,-3.75E-2,2.3493974E-1,-3.75E-2],"categories":[],"categories_nodes":[],"categories_segments":[],"categories_sizes":[],"default_left":[0,0,0,0,0,0,0,0,0,0,0,0,0,0,0,0,0,0,0,0,0,0,0,0,0,0,0,0,0,0,0],"id":4,"left_children":[1,3,5,7,9,11,13,15,17,-1,-1,19,-1,-1,-1,21,23,-1,-1,25,-1,-1,27,29,-1,-1,-1,-1,-1,-1,-1],"loss_changes":[4.397038E3,8.327936E1,1.8906567E2,1.9362366E1,3.2787857E1,3.8557373E1,8.55667E0,4.975952E0,1.6371216E1,0E0,0E0,7.9365234E0,0E0,0E0,0E0,3.1311035E-1,2.3639494E1,0E0,0E0,7.977295E0,0E0,0E0,3.099845E-1,1.0424152E1,0E0,0E0,0E0,0E0,0E0,0E0,0E0],"parents":[2147483647,0,0,1,1,2,2,3,3,4,4,5,5,6,6,7,7,8,8,11,11,15,15,16,16,19,19,22,22,23,23],"right_children":[2,4,6,8,10,12,14,16,18,-1,-1,20,-1,-1,-1,22,24,-1,-1,26,-1,-1,28,30,-1,-1,-1,-1,-1,-1,-1],"split_conditions":[5.0514567E-1,3.1838542E-1,1.5164468E-1,3.9452893E-1,7.966204E-2,1.3457722E-2,5.872281E-1,3.5261422E-1,4.6267647E-2,2.720207E-1,-4.8387095E-2,1.212493E0,-4.520548E-2,-5.660377E-2,1.5789473E-1,2.7536442E0,-9.777478E-2,2.307692E-1,-4.698795E-2,4.1782528E-1,1.5789472E-2,-5.9792023E-2,-2.6070394E-2,-1.0433758E-2,-5.7894737E-2,2.9908198E-1,1.5789472E-2,1.5789472E-2,-3.75E-2,2.3493974E-1,-3.75E-2],"split_indices":[400,112,19,192,227,432,563,400,136,0,0,47,0,0,0,468,228,0,0,184,0,0,0,150,0,0,0,0,0,0,0],"split_type":[0,0,0,0,0,0,0,0,0,0,0,0,0,0,0,0,0,0,0,0,0,0,0,0,0,0,0,0,0,0,0],"sum_hessian":[2.7250002E3,2.2672224E3,4.577778E2,2.2533335E3,1.3888889E1,4.4000003E2,1.7777779E1,2.246389E3,6.9444447E0,9.722222E0,4.166667E0,4.3694446E2,3.0555558E0,1.6666668E1,1.1111112E0,2.2136113E3,3.277778E1,3.3333335E0,3.6111112E0,4.3583334E2,1.1111112E0,2.2108335E3,2.777778E0,5.277778E0,2.7500002E1,4.3472223E2,1.1111112E0,1.1111112E0,1.6666667E0,3.6111112E0,1.6666667E0],"tree_param":{"num_deleted":"0","num_feature":"576","num_nodes":"31","size_leaf_vector":"1"}},{"base_weights":[-2.681225E-8,-5.637525E-1,2.8661375E0,-5.8192563E-1,6.716417E-1,2.965464E0,-2.238806E-1,-5.8544207E-1,4.8251742E-1,2.1787071E0,-4.6927375E-1,2.990713E-1,-3.6144596E-2,1.744186E-1,-5.5555552E-2,-5.9370416E-1,-3.5550937E-1,-4.897959E-2,1.8571429E-1,2.6771298E-1,-4.1379314E-2,6.315789E-2,-5.6804735E-2,-4.2857144E-2,6.315789E-2,-4.972826E-1,-5.992151E-1,1.9999999E0,-5.388027E-1,-5.603448E-1,5.2173907E-1,-5.9970554E-2,1.5789472E-2,2.3863636E-1,1.5789472E-2,4.285714E-1,-5.7798165E-1,-5.7736945E-1,6.315789E-2,-4.6153847E-2,1.3846153E0,-3.488372E-2,1.10526316E-1,-5.916149E-2,1.5789472E-2,-5.9460808E-2,-3.6144596E-2,6.9767423E-3,1.9811319E-1,-4.2857144E-2,6.315789E-2],"categories":[],"categories_nodes":[],"categories_segments":[],"categories_sizes":[],"default_left":[0,0,0,0,0,0,0,0,0,0,0,0,0,0,0,0,0,0,0,0,0,0,0,0,0,0,0,0,0,0,0,0,0,0,0,0,0,0,0,0,0,0,0,0,0,0,0,0,0,0,0],"id":5,"left_children":[1,3,5,7,9,11,13,15,17,19,21,-1,23,-1,-1,25,27,-1,-1,-1,-1,-1,-1,-1,-1,29,31,33,35,37,39,-1,-1,-1,-1,41,43,45,-1,-1,47,-1,-1,-1,-1,-1,49,-1,-1,-1,-1],"loss_changes":[4.4062656E3,5.1551697E1,1.3823242E2,8.69043E0,5.862346E1,3.302539E1,1.06878395E1,4.043091E0,1.15279E1,1.9987694E1,2.5213885E0,0E0,1.4789383E0,0E0,0E0,8.498535E-1,3.568949E1,0E0,0E0,0E0,0E0,0E0,0E0,0E0,0E0,8.175133E0,8.5150146E-1,3.8935356E0,3.0965767E0,2.7185287E0,7.143812E0,0E0,0E0,0E0,0E0,2.2267876E0,8.224354E-1,1.050415E0,0E0,0E0,3.260538E0,0E0,0E0,0E0,0E0,0E0,1.4789383E0,0E0,0E0,0E0,0E0],"parents":[2147483647,0,0,1,1,2,2,3,3,4,4,5,5,6,6,7,7,8,8,9,9,10,10,12,12,15,15,16,16,25,25,26,26,27,27,28,28,29,29,30,30,35,35,36,36,37,37,40,40,46,46],"right_children":[2,4,6,8,10,12,14,16,18,20,22,-1,24,-1,-1,26,28,-1,-1,-1,-1,-1,-1,-1,-1,30,32,34,36,38,40,-1,-1,-1,-1,42,44,46,-1,-1,48,-1,-1,-1,-1,-1,50,-1,-1,-1,-1],"split_conditions":[3.2268894E-1,2.2815983E-1,7.394456E-2,2.046584E-1,1.6245287E-2,2.4505123E-1,4.2170193E-2,2.544116E-1,4.361638E-1,8.9817785E-2,-8.070277E-2,2.990713E-1,2.1632586E-1,1.744186E-1,-5.5555552E-2,-8.0379196E-2,-9.888877E-2,-4.897959E-2,1.8571429E-1,2.6771298E-1,-4.1379314E-2,6.315789E-2,-5.6804735E-2,-4.2857144E-2,6.315789E-2,6.699068E-2,4.4020936E-1,-3.0186037E-3,-5.7686277E-2,1.1524347E0,-2.1750972E-2,-5.9970554E-2,1.5789472E-2,2.3863636E-1,1.5789472E-2,-4.395509E-2,8.194985E-1,7.0803486E-2,6.315789E-2,-4.6153847E-2,-2.3773028E-2,-3.488372E-2,1.10526316E-1,-5.916149E-2,1.5789472E-2,-5.9460808E-2,-1.9472692E-2,6.9767423E-3,1.9811319E-1,-4.2857144E-2,6.315789E-2],"split_indices":[483,483,240,573,86,264,284,184,65,472,45,0,2,0,0,386,86,0,0,0,0,0,0,0,0,483,541,62,264,445,1,0,0,0,0,8,42,207,0,0,14,0,0,0,0,0,1,0,0,0,0],"split_type":[0,0,0,0,0,0,0,0,0,0,0,0,0,0,0,0,0,0,0,0,0,0,0,0,0,0,0,0,0,0,0,0,0,0,0,0,0,0,0,0,0,0,0,0,0,0,0,0,0,0,0],"sum_hessian":[2.7250002E3,2.2777778E3,4.4722223E2,2.2452778E3,3.25E1,4.3333334E2,1.3888889E1,2.2383335E3,6.9444447E0,1.3611112E1,1.888889E1,4.2972223E2,3.6111112E0,1.388889E0,1.2500001E1,2.1591667E3,7.916667E1,4.4444447E0,2.5E0,1.1388889E1,2.2222223E0,1.1111112E0,1.7777779E1,2.5E0,1.1111112E0,1.2166667E2,2.0375001E3,5E0,7.416667E1,1.1500001E2,6.666667E0,2.036389E3,1.1111112E0,3.888889E0,1.1111112E0,2.5E0,7.166667E1,1.1388889E2,1.1111112E0,3.3333335E0,3.3333335E0,1.388889E0,1.1111112E0,7.055556E1,1.1111112E0,1.1027779E2,3.6111112E0,1.388889E0,1.9444445E0,2.5E0,1.1111112E0],"tree_param":{"num_deleted":"0","num_feature":"576","num_nodes":"51","size_leaf_vector":"1"}},{"base_weights":[4.2680462E-4,-4.3091735E-1,2.0640376E0,-4.9216577E-1,1.029062E0,2.1990113E0,-5.677223E-2,-5.3502035E-1,7.344908E-1,2.1612127E0,-5.0197524E-1,2.2296035E0,5.853677E-1,-5.4339147E-1,1.8507953E0,1.9909819E0,-4.0191883E-1,2.2218075E-1,-3.182682E-2,8.331879E-2,-5.7680942E-2,2.2382133E0,-3.391337E-2,1.7698012E-1,-3.4506154E-1,-5.6043154E-1,4.4858804E-1,5.5440523E-2,2.0166409E-1,-4.059195E-2,2.1602395E0,1.0181998E0,-5.7623286E-2,2.2417639E-1,5.4927833E-2,-4.823162E-2,1.454369E-2,-1.9256741E-1,-5.766714E-1,1.318838E0,-5.038613E-1,2.2515404E-1,-3.0366449E-2,1.6691917E-1,-3.4040265E-2,-3.4454414E-1,1.6643971E0,-5.848122E-1,-4.5602515E-1,4.36147E-1,1.6319538E0,-5.572946E-2,1.4904476E-2,3.2546812E-1,-5.3685445E-1,1.4829034E-2,1.9407082E-1,-5.858862E-1,-5.1011086E-2,8.210902E-1,-5.304295E-1,-3.9356332E-2,8.88521E-2,1.50429625E-2,1.7541113E0,1.7867573E-1,-1.4202476E-2,-5.6729555E-1,5.983494E-2,-2.2777858E-1,-5.869614E-1,-4.3203082E-2,6.3774206E-2,-4.5045134E-2,1.8672967E-1,4.528231E-2,-5.699585E-1,1.9334772E0,5.709948E-2,-4.3711892E-1,5.588444E-1,1.5715282E-2,-5.8284532E-2,-4.9414467E-2,6.5137915E-2,-5.8750135E-1,-1.5914696E-1,1.1467054E0,-5.0195433E-2,3.7454173E-2,-5.8731854E-2,2.0457509E-1,5.800364E-2,-5.295017E-2,1.5804553E-2,1.1534983E-1,8.944767E-3,-5.8858115E-2,-3.5717078E-2,1.6829226E-2,-3.624196E-2,1.5707886E-1,1.6735246E-2],"categories":[],"categories_nodes":[],"categories_segments":[],"categories_sizes":[],"default_left":[0,0,0,0,0,0,0,0,0,0,0,0,0,0,0,0,0,0,0,0,0,0,0,0,0,0,0,0,0,0,0,0,0,0,0,0,0,0,0,0,0,0,0,0,0,0,0,0,0,0,0,0,0,0,0,0,0,0,0,0,0,0,0,0,0,0,0,0,0,0,0,0,0,0,0,0,0,0,0,0,0,0,0,0,0,0,0,0,0,0,0,0,0,0,0,0,0,0,0,0,0,0,0],"id":6,"left_children":[1,3,5,7,9,11,-1,13,15,17,19,21,23,25,27,29,31,-1,-1,-1,-1,33,-1,-1,35,37,39,-1,-1,-1,41,43,-1,-1,-1,-1,-1,45,47,49,51,-1,-1,-1,-1,53,55,57,59,61,63,-1,-1,65,67,-1,-1,69,71,73,75,-1,-1,-1,77,-1,79,81,-1,83,85,-1,-1,-1,-1,87,89,91,-1,93,95,-1,-1,-1,-1,97,99,101,-1,-1,-1,-1,-1,-1,-1,-1,-1,-1,-1,-1,-1,-1,-1],"loss_changes":[2.4158435E3,2.0124182E2,1.6792468E2,1.1368292E2,1.5831104E2,2.0738281E1,0E0,4.2606323E1,1.0528055E2,8.570023E0,4.4144297E0,1.0442871E1,1.1260883E1,3.535022E1,4.9658966E-1,1.5042755E1,1.0303814E1,0E0,0E0,0E0,0E0,1.3867188E0,0E0,0E0,4.9086714E-1,1.2086853E1,3.019027E1,0E0,0E0,0E0,8.056137E0,4.683376E0,0E0,0E0,0E0,0E0,0E0,2.5360209E1,1.6534424E0,4.509281E0,7.016492E-1,0E0,0E0,0E0,0E0,1.0742175E1,2.567463E0,1.0180054E0,1.2609663E1,2.7185009E0,2.1937256E0,0E0,0E0,9.412841E0,2.554554E0,0E0,0E0,5.6866455E-1,1.5261364E0,1.074605E1,2.7947464E0,0E0,0E0,0E0,1.5382767E0,0E0,4.2037635E0,8.006153E-1,0E0,1.9832281E0,3.2641602E-1,0E0,0E0,0E0,0E0,5.8458242E0,2.0880089E0,3.9266205E-1,0E0,6.3139164E-1,1.9557917E0,0E0,0E0,0E0,0E0,2.4127197E-1,3.0482072E-1,1.0689864E0,0E0,0E0,0E0,0E0,0E0,0E0,0E0,0E0,0E0,0E0,0E0,0E0,0E0,0E0,0E0],"parents":[2147483647,0,0,1,1,2,2,3,3,4,4,5,5,7,7,8,8,9,9,10,10,11,11,12,12,13,13,14,14,15,15,16,16,21,21,24,24,25,25,26,26,30,30,31,31,37,37,38,38,39,39,40,40,45,45,46,46,47,47,48,48,49,49,50,50,53,53,54,54,57,57,58,58,59,59,60,60,64,64,66,66,67,67,69,69,70,70,75,75,76,76,77,77,79,79,80,80,85,85,86,86,87,87],"right_children":[2,4,6,8,10,12,-1,14,16,18,20,22,24,26,28,30,32,-1,-1,-1,-1,34,-1,-1,36,38,40,-1,-1,-1,42,44,-1,-1,-1,-1,-1,46,48,50,52,-1,-1,-1,-1,54,56,58,60,62,64,-1,-1,66,68,-1,-1,70,72,74,76,-1,-1,-1,78,-1,80,82,-1,84,86,-1,-1,-1,-1,88,90,92,-1,94,96,-1,-1,-1,-1,98,100,102,-1,-1,-1,-1,-1,-1,-1,-1,-1,-1,-1,-1,-1,-1,-1],"split_conditions":[3.6361644E-1,1.8084265E0,2.3649243E-1,2.9878604E-1,6.907688E-2,3.3394915E-1,-5.677223E-2,5.1499665E-1,-4.5782935E-2,3.9423957E-2,-7.920152E-2,2.4571016E-1,1.5423109E-1,4.709642E-1,-7.9946466E-2,-1.4062865E-2,7.398513E-2,2.2218075E-1,-3.182682E-2,8.331879E-2,-5.7680942E-2,1.6746814E0,-3.391337E-2,1.7698012E-1,-3.4461685E-2,2.1898786E-2,7.5155316E-4,5.5440523E-2,2.0166409E-1,-4.059195E-2,5.7403535E-2,-5.954027E-3,-5.7623286E-2,2.2417639E-1,5.4927833E-2,-4.823162E-2,1.454369E-2,2.75441E-1,4.0099853E-1,7.8165755E-3,-9.010749E-3,2.2515404E-1,-3.0366449E-2,1.6691917E-1,-3.4040265E-2,-9.287834E-2,-9.6047506E-2,4.0551552E-1,-7.931122E-2,0E0,-1.0591192E-1,-5.572946E-2,1.4904476E-2,-1.11131E-1,1.2292259E0,1.4829034E-2,1.9407082E-1,-1.6788808E-1,3.4953162E-2,-8.903625E-3,-1.0693942E-1,-3.9356332E-2,8.88521E-2,1.50429625E-2,1.1677796E-1,1.7867573E-1,-3.2668113E-4,-6.5897815E-2,5.983494E-2,1.6370137E-1,8.9941E-2,-4.3203082E-2,6.3774206E-2,-4.5045134E-2,1.8672967E-1,-5.1440403E-2,-1.359085E-1,-1.7326465E-2,5.709948E-2,1.4959341E-1,-2.3383763E-2,1.5715282E-2,-5.8284532E-2,-4.9414467E-2,6.5137915E-2,1.147744E0,-1.2491323E-2,-2.9021032E-2,-5.0195433E-2,3.7454173E-2,-5.8731854E-2,2.0457509E-1,5.800364E-2,-5.295017E-2,1.5804553E-2,1.1534983E-1,8.944767E-3,-5.8858115E-2,-3.5717078E-2,1.6829226E-2,-3.624196E-2,1.5707886E-1,1.6735246E-2],"split_indices":[549,209,348,303,66,516,0,220,197,413,298,180,557,250,13,480,227,0,0,0,0,557,0,0,0,433,211,0,0,0,546,2,0,0,0,0,0,250,102,480,367,0,0,0,0,413,79,220,418,414,7,0,0,477,562,0,0,285,54,194,381,0,0,0,494,0,14,446,0,79,132,0,0,0,0,118,227,7,0,551,84,0,0,0,0,34,76,0,0,0,0,0,0,0,0,0,0,0,0,0,0,0,0],"split_type":[0,0,0,0,0,0,0,0,0,0,0,0,0,0,0,0,0,0,0,0,0,0,0,0,0,0,0,0,0,0,0,0,0,0,0,0,0,0,0,0,0,0,0,0,0,0,0,0,0,0,0,0,0,0,0,0,0,0,0,0,0,0,0,0,0,0,0,0,0,0,0,0,0,0,0,0,0,0,0,0,0,0,0,0,0,0,0,0,0,0,0,0,0,0,0,0,0,0,0,0,0,0,0],"sum_hessian":[2.712046E3,2.243824E3,4.6822186E2,2.1541184E3,8.970576E1,4.4553632E2,2.2685568E1,2.081947E3,7.217121E1,5.133422E1,3.8371532E1,4.3687216E2,8.664145E0,2.0754373E3,6.5098677E0,3.3917614E1,3.8253597E1,5.021106E1,1.1231593E0,1.498689E0,3.6872845E1,4.3554102E2,1.3311346E0,3.4148793E0,5.2492657E0,2.0408156E3,3.4621742E1,1.2309129E0,5.2789545E0,2.1448965E0,3.1772718E1,3.652868E0,3.4600727E1,4.3430066E2,1.2403572E0,4.1145773E0,1.1346881E0,8.682918E1,1.9539863E3,1.7890537E1,1.6731207E1,3.0720547E1,1.052172E0,2.3149974E0,1.3378705E0,8.1013374E1,5.8157973E0,1.8268684E3,1.27117905E2,5.311119E0,1.2579417E1,1.56008835E1,1.1303239E0,1.791273E1,6.3100647E1,1.1334248E0,4.6823726E0,1.8231029E3,3.7655344E0,6.4456596E0,1.2067225E2,1.9198604E0,3.3912587E0,1.1281893E0,1.1451228E1,2.5749276E0,1.5337802E1,6.193997E1,1.160681E0,6.094408E0,1.8170084E3,2.6643467E0,1.1011876E0,3.1665418E0,3.279118E0,7.7438025E0,1.12928444E2,9.392984E0,2.0582433E0,8.961382E0,6.37642E0,1.1102068E0,6.082976E1,5.0133915E0,1.0810168E0,1.8143451E3,2.6633174E0,2.2067766E0,5.537026E0,1.6668309E0,1.1126161E2,8.201146E0,1.1918387E0,7.8527827E0,1.1085988E0,2.1699808E0,4.2064395E0,1.8043309E3,1.0014162E1,1.086013E0,1.5773045E0,1.1185243E0,1.0882523E0],"tree_param":{"num_deleted":"0","num_feature":"576","num_nodes":"103","size_leaf_vector":"1"}},{"base_weights":[-1.18180884E-4,-5.311896E-1,2.049221E0,-5.713326E-1,1.2067684E0,2.1965106E0,-4.221461E-1,-5.8201593E-1,1.0421468E0,1.8111333E0,-4.7779948E-1,-9.149245E-3,2.225044E0,-5.7332616E-2,1.423413E-1,-5.852851E-1,3.6482042E-1,-5.012538E-2,2.0771551E-1,2.0576966E0,5.310665E-2,1.4780491E-2,-5.4559376E-2,1.12186514E-1,-4.9746595E-2,2.2379258E0,-4.1669033E-2,3.8796473E-1,-5.871717E-1,-4.8444446E-2,1.6472538E-1,2.1272304E0,4.145777E-2,6.549585E-2,-4.3047927E-2,2.242245E-1,1.4464288E-2,-4.1595608E-2,1.403485E-1,-5.9045102E-2,-4.1456556E-1,5.198884E-2,2.1807168E-1,8.752515E-1,-5.7683688E-2,-3.8397934E-2,1.7012458E-1],"categories":[],"categories_nodes":[],"categories_segments":[],"categories_sizes":[],"default_left":[0,0,0,0,0,0,0,0,0,0,0,0,0,0,0,0,0,0,0,0,0,0,0,0,0,0,0,0,0,0,0,0,0,0,0,0,0,0,0,0,0,0,0,0,0,0,0],"id":7,"left_children":[1,3,5,7,9,11,13,15,17,19,21,23,25,-1,-1,27,29,-1,-1,31,33,-1,-1,-1,-1,35,-1,37,39,-1,-1,41,-1,-1,-1,-1,-1,-1,-1,-1,43,-1,-1,45,-1,-1,-1],"loss_changes":[2.955401E3,1.5115009E2,2.0436108E2,3.695349E1,5.0762047E1,3.3225098E1,9.820715E0,6.699707E0,2.3769928E1,1.5616028E1,6.6303706E-1,4.8295364E0,1.865747E1,0E0,0E0,4.062439E0,9.321568E0,0E0,0E0,2.750122E0,1.8794115E0,0E0,0E0,0E0,0E0,4.3635254E0,0E0,4.3740788E0,9.3536377E-1,0E0,0E0,1.4674835E0,0E0,0E0,0E0,0E0,0E0,0E0,0E0,0E0,9.343631E0,0E0,0E0,5.974966E0,0E0,0E0,0E0],"parents":[2147483647,0,0,1,1,2,2,3,3,4,4,5,5,6,6,7,7,8,8,9,9,10,10,11,11,12,12,15,15,16,16,19,19,20,20,25,25,27,27,28,28,31,31,40,40,43,43],"right_children":[2,4,6,8,10,12,14,16,18,20,22,24,26,-1,-1,28,30,-1,-1,32,34,-1,-1,-1,-1,36,-1,38,40,-1,-1,42,-1,-1,-1,-1,-1,-1,-1,-1,44,-1,-1,46,-1,-1,-1],"split_conditions":[3.7925455E-1,4.1124898E-1,9.6419804E-2,3.3290726E-1,1.1809943E-3,9.746834E-2,2.943945E-1,2.5090367E-1,3.5855442E-1,-3.832395E-2,-1.3948804E-1,-4.252941E-2,2.3548329E-1,-5.7332616E-2,1.423413E-1,-1.01717E-1,-6.555711E-3,-5.012538E-2,2.0771551E-1,7.0111305E-1,2.0921579E-2,1.4780491E-2,-5.4559376E-2,1.12186514E-1,-4.9746595E-2,6.023922E-2,-4.1669033E-2,6.470259E-2,7.468222E-2,-4.8444446E-2,1.6472538E-1,-3.4392796E-2,4.145777E-2,6.549585E-2,-4.3047927E-2,2.242245E-1,1.4464288E-2,-4.1595608E-2,1.403485E-1,-5.9045102E-2,-2.2841804E-2,5.198884E-2,2.1807168E-1,-2.4108823E-2,-5.7683688E-2,-3.8397934E-2,1.7012458E-1],"split_indices":[152,8,388,162,444,2,340,233,23,300,325,214,193,0,0,225,1,0,0,209,97,0,0,0,0,261,0,2,233,0,0,249,0,0,0,0,0,0,0,0,551,0,0,15,0,0,0],"split_type":[0,0,0,0,0,0,0,0,0,0,0,0,0,0,0,0,0,0,0,0,0,0,0,0,0,0,0,0,0,0,0,0,0,0,0,0,0,0,0,0,0,0,0,0,0,0,0],"sum_hessian":[2.7134983E3,2.1556245E3,5.578738E2,2.1076147E3,4.8009914E1,5.266004E2,3.1273323E1,2.0943865E3,1.3228299E1,3.5278183E1,1.273173E1,6.73402E0,5.198664E2,2.9542667E1,1.7306565E0,2.0875603E3,6.826062E0,5.517028E0,7.7112713E0,3.07895E1,4.488684E0,1.1294048E0,1.1602325E1,1.6394339E0,5.0945864E0,5.1749585E2,2.3705804E0,3.6427002E0,2.0839177E3,4.4809146E0,2.3451471E0,2.9256775E1,1.532724E0,1.8419222E0,2.6467621E0,5.1635925E2,1.13657E0,2.3627038E0,1.2799966E0,2.0426876E3,4.123001E1,1.2874379E0,2.7969337E1,4.116463E0,3.711355E1,1.8425779E0,2.273885E0],"tree_param":{"num_deleted":"0","num_feature":"576","num_nodes":"47","size_leaf_vector":"1"}},{"base_weights":[2.752823E-4,-5.030298E-1,1.9667456E0,-5.45353E-1,8.3266914E-1,2.1214104E0,-4.8672035E-1,-5.630087E-1,2.0855615E-1,1.6896234E0,-5.335883E-1,2.2014134E0,-2.3370646E-1,6.055808E-2,-5.7418197E-2,-5.774254E-1,-1.7205633E-1,1.9528301E0,-4.150332E-1,9.612963E-1,2.1076813E0,1.5218364E-2,-5.6988526E-2,2.2224061E0,-2.855319E-1,-5.5546857E-2,1.0927074E0,-5.7891214E-1,1.1515029E-1,1.1492615E0,-5.15941E-1,2.1194334E-1,1.3551499E-2,-5.4617137E-1,9.957483E-1,-3.681943E-2,1.1262561E0,5.462485E-2,2.1655095E-1,2.2345152E0,-4.050868E-2,1.4808814E-2,-4.460842E-2,1.4369938E-1,1.4426189E-2,-5.8088064E-1,1.0510439E-1,1.954187E0,-3.4295055E-1,-5.649166E-1,7.0232294E-2,-5.7435125E-2,1.490189E-2,1.4679884E-2,1.3432328E-1,1.283871E0,1.7517908E-1,2.2390044E0,1.4510562E-2,-5.857385E-1,-3.5051495E-1,1.3532244E-1,-4.7715034E-2,2.163425E-1,1.4366453E-2,-4.7893107E-2,1.54300975E-2,1.5735453E-2,-5.8181237E-2,1.5465062E0,6.2428063E-1,-3.230178E-2,5.842684E-2,2.24253E0,5.103886E-2,-5.8675253E-1,-5.9466038E-2,6.1057264E-1,-5.7559945E-2,7.957855E-1,1.8048893E-1,8.105882E-1,6.1028297E-3,2.2452989E-1,8.135786E-2,-5.872666E-1,1.6612556E-2,5.8407195E-2,-4.294659E-2,1.6137122E-1,-3.0209467E-1,1.0243862E-1,1.3252712E-2,1.0254902E-1,1.4767872E-2,-9.357413E-2,-5.8777493E-1,1.544549E-2,-4.5770984E-2,1.5526622E-2,-3.0391907E-2,-5.882887E-2,-2.1050174E-2],"categories":[],"categories_nodes":[],"categories_segments":[],"categories_sizes":[],"default_left":[0,0,0,0,0,0,0,0,0,0,0,0,0,0,0,0,0,0,0,0,0,0,0,0,0,0,0,0,0,0,0,0,0,0,0,0,0,0,0,0,0,0,0,0,0,0,0,0,0,0,0,0,0,0,0,0,0,0,0,0,0,0,0,0,0,0,0,0,0,0,0,0,0,0,0,0,0,0,0,0,0,0,0,0,0,0,0,0,0,0,0,0,0,0,0,0,0,0,0,0,0,0,0],"id":8,"left_children":[1,3,5,7,9,11,13,15,17,19,21,23,25,-1,-1,27,29,31,33,35,37,-1,-1,39,41,-1,43,45,-1,47,49,-1,-1,51,53,-1,55,-1,-1,57,-1,-1,-1,-1,-1,59,61,63,65,67,-1,-1,-1,-1,-1,69,71,73,-1,75,77,-1,-1,-1,-1,-1,-1,-1,-1,79,81,-1,-1,83,-1,85,87,89,-1,91,-1,93,-1,-1,-1,95,-1,-1,-1,-1,97,-1,-1,-1,-1,99,101,-1,-1,-1,-1,-1,-1],"loss_changes":[2.6865586E3,1.2263245E2,2.1093774E2,2.8010132E1,7.908264E1,9.859326E1,3.559235E0,1.1442688E1,5.376112E1,1.0541679E1,7.463198E-1,2.6923096E1,8.291687E0,0E0,0E0,5.7420044E0,3.433233E1,3.64748E0,7.330877E0,4.119049E0,1.1092224E0,0E0,0E0,1.6795898E1,4.2118716E-1,0E0,1.0505767E0,2.7183228E0,0E0,1.9460613E1,3.9533634E0,0E0,0E0,7.557955E-1,8.277044E-1,0E0,2.064539E0,0E0,0E0,4.3393555E0,0E0,0E0,0E0,0E0,0E0,1.9970703E0,5.3765836E0,3.5955505E0,5.0207794E-1,7.976303E-1,0E0,0E0,0E0,0E0,0E0,1.2767773E0,8.672484E-1,1.8793945E0,0E0,9.928589E-1,9.682385E0,0E0,0E0,0E0,0E0,0E0,0E0,0E0,0E0,2.2808075E-1,5.133188E-1,0E0,0E0,1.3110352E-1,0E0,8.4155273E-1,1.3976985E0,8.425331E0,0E0,4.6855164E-1,0E0,4.110775E-1,0E0,0E0,0E0,4.2712402E-1,0E0,0E0,0E0,0E0,4.5307428E-1,0E0,0E0,0E0,0E0,2.1286103E-1,2.4804688E-1,0E0,0E0,0E0,0E0,0E0,0E0],"parents":[2147483647,0,0,1,1,2,2,3,3,4,4,5,5,6,6,7,7,8,8,9,9,10,10,11,11,12,12,15,15,16,16,17,17,18,18,19,19,20,20,23,23,24,24,26,26,27,27,29,29,30,30,33,33,34,34,36,36,39,39,45,45,46,46,47,47,48,48,49,49,55,55,56,56,57,57,59,59,60,60,69,69,70,70,73,73,75,75,76,76,77,77,79,79,81,81,85,85,90,90,95,95,96,96],"right_children":[2,4,6,8,10,12,14,16,18,20,22,24,26,-1,-1,28,30,32,34,36,38,-1,-1,40,42,-1,44,46,-1,48,50,-1,-1,52,54,-1,56,-1,-1,58,-1,-1,-1,-1,-1,60,62,64,66,68,-1,-1,-1,-1,-1,70,72,74,-1,76,78,-1,-1,-1,-1,-1,-1,-1,-1,80,82,-1,-1,84,-1,86,88,90,-1,92,-1,94,-1,-1,-1,96,-1,-1,-1,-1,98,-1,-1,-1,-1,100,102,-1,-1,-1,-1,-1,-1],"split_conditions":[1.0116654E-1,6.986699E-1,2.6678565E-1,1.4372914E-1,4.6524853E-3,1.11276306E-1,1.5337314E-1,2.3636915E-1,-2.9463911E-2,1.742564E-1,-4.4086136E-2,4.7691303E-1,2.1564667E-1,6.055808E-2,-5.7418197E-2,5.353401E-1,-5.526669E-3,2.1975511E-1,6.1298057E-2,-7.283306E-2,-1.0175699E-1,1.5218364E-2,-5.6988526E-2,2.2056685E-1,-7.527175E-2,-5.5546857E-2,1.688531E-2,2.5223038E0,1.1515029E-1,5.242202E-1,3.0733116E-3,2.1194334E-1,1.3551499E-2,3.6609077E-1,-4.5580786E-2,-3.681943E-2,-9.2435945E-3,5.462485E-2,2.1655095E-1,5.396764E-1,-4.050868E-2,1.4808814E-2,-4.460842E-2,1.4369938E-1,1.4426189E-2,1.683833E-1,-2.1944728E-3,5.356582E-2,3.8839433E-1,-1.0279226E-1,7.0232294E-2,-5.7435125E-2,1.490189E-2,1.4679884E-2,1.3432328E-1,-1.9859036E-2,-8.698453E-3,2.5178275E-1,1.4510562E-2,4.3292895E-1,1.0248102E-2,1.3532244E-1,-4.7715034E-2,2.163425E-1,1.4366453E-2,-4.7893107E-2,1.54300975E-2,1.5735453E-2,-5.8181237E-2,-2.4331704E-2,-1.2271719E-2,-3.230178E-2,5.842684E-2,1.2110965E-1,5.103886E-2,2.8491655E-1,-6.4060755E-2,1.1271557E-2,-5.7559945E-2,-7.84394E-2,1.8048893E-1,-5.3428024E-2,6.1028297E-3,2.2452989E-1,8.135786E-2,-1.9071774E-1,1.6612556E-2,5.8407195E-2,-4.294659E-2,1.6137122E-1,-1.4249056E-2,1.0243862E-1,1.3252712E-2,1.0254902E-1,1.4767872E-2,-3.226899E-2,3.638106E-1,1.544549E-2,-4.5770984E-2,1.5526622E-2,-3.0391907E-2,-5.882887E-2,-2.1050174E-2],"split_indices":[211,353,256,19,238,276,485,482,150,433,167,504,381,0,0,156,73,485,14,180,324,0,0,133,215,0,108,232,0,138,390,0,0,461,125,0,409,0,0,445,0,0,0,0,0,216,16,77,28,504,0,0,0,0,0,559,22,302,0,173,73,0,0,0,0,0,0,0,0,19,55,0,0,224,0,306,15,16,0,458,0,256,0,0,0,49,0,0,0,0,312,0,0,0,0,32,100,0,0,0,0,0,0],"split_type":[0,0,0,0,0,0,0,0,0,0,0,0,0,0,0,0,0,0,0,0,0,0,0,0,0,0,0,0,0,0,0,0,0,0,0,0,0,0,0,0,0,0,0,0,0,0,0,0,0,0,0,0,0,0,0,0,0,0,0,0,0,0,0,0,0,0,0,0,0,0,0,0,0,0,0,0,0,0,0,0,0,0,0,0,0,0,0,0,0,0,0,0,0,0,0,0,0,0,0,0,0,0,0],"sum_hessian":[2.7124238E3,2.160263E3,5.521608E2,2.0944885E3,6.5774635E1,5.1954443E2,3.2616386E1,2.0468076E3,4.768081E1,4.027584E1,2.5498793E1,5.0253857E2,1.7005877E1,1.9788405E0,3.0637547E1,1.9735541E3,7.32535E1,1.1995626E1,3.5685184E1,1.5890815E1,2.4385027E1,1.1212803E0,2.4377512E1,4.9843753E2,4.1010346E0,1.4153693E1,2.8521843E0,1.9725231E3,1.0310227E0,1.4644093E1,5.860941E1,1.0835988E1,1.1596388E0,3.321094E1,2.4742405E0,1.6180606E0,1.4272754E1,1.2439097E0,2.3141117E1,4.9629984E2,2.1376927E0,1.1291249E0,2.9719095E0,1.714658E0,1.1375263E0,1.9670132E3,5.509891E0,9.31164E0,5.332453E0,5.685987E1,1.7495383E0,3.2084213E1,1.1267291E0,1.1317327E0,1.3425077E0,1.1943529E1,2.3292248E0,4.9516437E2,1.1354613E0,1.9248795E3,4.2133713E1,1.3315253E0,4.1783657E0,8.172272E0,1.1393683E0,4.2162914E0,1.1161616E0,1.1096684E0,5.5750202E1,7.5804896E0,4.3630395E0,1.145099E0,1.1841259E0,4.9385977E2,1.3045911E0,1.921063E3,3.816533E0,7.6701837E0,3.446353E1,2.985658E0,4.5948315E0,2.9486058E0,1.4144338E0,4.923345E2,1.5252786E0,1.9199719E3,1.0910795E0,1.1820421E0,2.634491E0,3.2880566E0,4.3821273E0,1.8154606E0,1.1701972E0,1.8136898E0,1.134916E0,2.1651769E0,1.9178066E3,1.1158527E0,3.2662745E0,1.1117795E0,1.0533974E0,1.91464E3,3.166723E0],"tree_param":{"num_deleted":"0","num_feature":"576","num_nodes":"103","size_leaf_vector":"1"}},{"base_weights":[-5.1959796E-5,-5.238073E-1,2.0741355E0,-5.7246965E-1,6.2595516E-1,2.208967E0,-1.7371553E-1,-5.766969E-1,1.0907944E0,2.1036043E0,-3.962534E-1,-1.13117516E-1,2.228925E0,-5.7188045E-2,1.8811838E-1,-5.7999885E-1,7.31875E-1,1.7614327E-1,-3.6562007E-2,2.2111984E-1,-3.503784E-2,-5.415031E-1,1.5291367E-1,-4.5147236E-2,5.903409E-2,2.2364278E0,-3.4348015E-2,-5.8189005E-1,5.7170373E-1,1.6934502E-1,-4.1786265E-2,-5.803227E-2,4.375891E-2,2.2410784E0,4.159979E-2,-5.828376E-1,5.7461895E-2,-3.622537E-2,1.3610844E-1,5.573369E-2,2.244037E-1,-5.870665E-1,-2.9099578E-1,-5.8850497E-1,-2.5048476E-1,1.0561106E0,-5.343685E-1,-5.889943E-1,1.973163E-3,1.03313245E-1,-5.289179E-2,-3.6215946E-2,1.7810726E-1,-5.697001E-2,1.613055E-2,-3.6124885E-1,-5.899585E-1,-5.3272467E-2,5.8895756E-2,-5.904447E-2,-2.5957016E-2],"categories":[],"categories_nodes":[],"categories_segments":[],"categories_sizes":[],"default_left":[0,0,0,0,0,0,0,0,0,0,0,0,0,0,0,0,0,0,0,0,0,0,0,0,0,0,0,0,0,0,0,0,0,0,0,0,0,0,0,0,0,0,0,0,0,0,0,0,0,0,0,0,0,0,0,0,0,0,0,0,0],"id":9,"left_children":[1,3,5,7,9,11,13,15,17,19,21,23,25,-1,-1,27,29,-1,-1,-1,-1,31,-1,-1,-1,33,-1,35,37,-1,-1,-1,-1,39,-1,41,-1,-1,-1,-1,-1,43,45,47,49,51,53,55,-1,-1,-1,-1,-1,-1,-1,57,59,-1,-1,-1,-1],"loss_changes":[2.9498657E3,1.2165405E2,1.662976E2,1.5256531E1,1.3452014E2,2.4189941E1,2.7179983E1,9.393738E0,6.1331205E0,1.0372284E1,1.569413E1,1.5406966E0,1.0653076E1,0E0,0E0,4.843811E0,6.9726963E0,0E0,0E0,0E0,0E0,2.1606865E0,0E0,0E0,0E0,3.392334E0,0E0,2.6013184E0,3.3682063E0,0E0,0E0,0E0,0E0,1.2861328E0,0E0,2.380188E0,0E0,0E0,0E0,0E0,0E0,8.3862305E-1,1.0893931E1,6.1499023E-1,4.2661753E0,5.947577E0,7.641387E-1,2.3168945E-1,0E0,0E0,0E0,0E0,0E0,0E0,0E0,2.1253705E0,1.7047119E-1,0E0,0E0,0E0,0E0],"parents":[2147483647,0,0,1,1,2,2,3,3,4,4,5,5,6,6,7,7,8,8,9,9,10,10,11,11,12,12,15,15,16,16,21,21,25,25,27,27,28,28,33,33,35,35,41,41,42,42,43,43,44,44,45,45,46,46,47,47,55,55,56,56],"right_children":[2,4,6,8,10,12,14,16,18,20,22,24,26,-1,-1,28,30,-1,-1,-1,-1,32,-1,-1,-1,34,-1,36,38,-1,-1,-1,-1,40,-1,42,-1,-1,-1,-1,-1,44,46,48,50,52,54,56,-1,-1,-1,-1,-1,-1,-1,58,60,-1,-1,-1,-1],"split_conditions":[1.6103987E-1,1.23642735E-1,9.4349995E-2,1.3455043E0,-4.9536336E-2,1.2146646E-1,5.630185E-1,1.6865865E0,-2.3751263E-2,6.0664967E-2,6.878536E-1,9.9634826E-2,1.8814021E-1,-5.7188045E-2,1.8811838E-1,4.6052942E-1,1.2433018E-1,1.7614327E-1,-3.6562007E-2,2.2111984E-1,-3.503784E-2,4.463522E-1,1.5291367E-1,-4.5147236E-2,5.903409E-2,3.5298592E-1,-3.4348015E-2,8.210666E-1,-3.609375E-2,1.6934502E-1,-4.1786265E-2,-5.803227E-2,4.375891E-2,-8.192132E-2,4.159979E-2,4.5975828E-1,5.7461895E-2,-3.622537E-2,1.3610844E-1,5.573369E-2,2.244037E-1,1.0125291E0,-8.789723E-2,5.3744245E-1,-4.9508505E-2,-9.412845E-2,1.259065E-1,-1.8934089E-1,1.973163E-3,1.03313245E-1,-5.289179E-2,-3.6215946E-2,1.7810726E-1,-5.697001E-2,1.613055E-2,-1.5692614E-2,1.4809877E0,-5.3272467E-2,5.8895756E-2,-5.904447E-2,-2.5957016E-2],"split_indices":[246,417,226,456,476,504,354,521,123,96,456,492,306,0,0,177,73,0,0,0,0,176,0,0,0,427,0,448,0,0,0,0,0,11,0,352,0,0,0,0,0,456,157,90,350,114,566,37,0,0,0,0,0,0,0,131,521,0,0,0,0],"split_type":[0,0,0,0,0,0,0,0,0,0,0,0,0,0,0,0,0,0,0,0,0,0,0,0,0,0,0,0,0,0,0,0,0,0,0,0,0,0,0,0,0,0,0,0,0,0,0,0,0,0,0,0,0,0,0,0,0,0,0,0,0],"sum_hessian":[2.7133496E3,2.1669246E3,5.464249E2,2.0794177E3,8.7506874E1,5.1552014E2,3.0904823E1,2.0747979E3,4.619896E0,3.5349567E1,5.215731E1,4.3532557E0,5.1116687E2,2.6493118E1,4.411706E0,2.0701309E3,4.666876E0,3.0198898E0,1.6000062E0,3.3959557E1,1.3900096E0,4.9166954E1,2.9903538E0,3.1813E0,1.1719558E0,5.0981055E2,1.3563393E0,2.0672312E3,2.8998396E0,2.283873E0,2.3830028E0,4.768365E1,1.4833043E0,5.08281E2,1.5295327E0,2.0660344E3,1.1966317E0,1.5761296E0,1.32371E0,1.2237296E0,5.0705728E2,2.0355273E3,3.0507132E1,2.0261196E3,9.407715E0,4.1571536E0,2.6349977E1,2.0245223E3,1.5972714E0,1.1937646E0,8.21395E0,1.5754622E0,2.5816913E0,2.5248735E1,1.1012411E0,1.0118489E1,2.0144038E3,8.94383E0,1.1746595E0,2.0106581E3,3.745819E0],"tree_param":{"num_deleted":"0","num_feature":"576","num_nodes":"61","size_leaf_vector":"1"}},{"base_weights":[-3.229618E-4,-5.62148E-1,2.1398785E0,-5.7804984E-1,1.4806366E0,2.2135303E0,-4.9591616E-1,-5.835587E-1,8.7674844E-1,2.1188651E-1,-4.7411703E-2,2.2283714E0,-2.2021258E-1,-5.53989E-2,1.45309465E-2,-5.89538E-1,-1.8612586E-1,1.8953472E-1,-4.607253E-2,2.2352986E0,-3.402176E-2,-4.0457007E-2,1.5832275E-2,-5.9000564E-1,-1.6820908E-1,1.3373355E0,-5.704567E-2,2.240809E0,6.3059814E-3,-5.909524E-2,-4.0580425E-1,-3.7005786E-2,1.661281E-2,1.919466E-1,-3.6683276E-2,2.243562E-1,5.591851E-2,6.5217525E-2,-5.458359E-2],"categories":[],"categories_nodes":[],"categories_segments":[],"categories_sizes":[],"default_left":[0,0,0,0,0,0,0,0,0,0,0,0,0,0,0,0,0,0,0,0,0,0,0,0,0,0,0,0,0,0,0,0,0,0,0,0,0,0,0],"id":10,"left_children":[1,3,5,7,9,11,13,15,17,-1,-1,19,21,-1,-1,23,25,-1,-1,27,-1,-1,-1,29,31,33,-1,35,-1,-1,37,-1,-1,-1,-1,-1,-1,-1,-1],"loss_changes":[3.265913E3,7.0740906E1,1.10734375E2,1.7625854E1,2.2086823E1,2.0341553E1,6.825938E-1,4.9471436E0,1.239242E1,0E0,0E0,1.0481689E1,3.6002707E-1,0E0,0E0,3.1384277E-1,2.0086153E1,0E0,0E0,6.38208E0,0E0,0E0,0E0,1.2524414E-1,3.1271645E-1,7.596304E0,0E0,1.262207E0,0E0,0E0,2.4146056E0,0E0,0E0,0E0,0E0,0E0,0E0,0E0,0E0],"parents":[2147483647,0,0,1,1,2,2,3,3,4,4,5,5,6,6,7,7,8,8,11,11,12,12,15,15,16,16,19,19,23,23,24,24,25,25,27,27,30,30],"right_children":[2,4,6,8,10,12,14,16,18,-1,-1,20,22,-1,-1,24,26,-1,-1,28,-1,-1,-1,30,32,34,-1,36,-1,-1,38,-1,-1,-1,-1,-1,-1,-1,-1],"split_conditions":[5.0514567E-1,3.1838542E-1,1.3352017E-1,3.9452893E-1,7.966204E-2,1.6774014E-1,6.4396966E-1,3.5261422E-1,4.6267647E-2,2.1188651E-1,-4.7411703E-2,1.5635645E-1,6.6110873E-1,-5.53989E-2,1.45309465E-2,2.7536442E0,-9.777478E-2,1.8953472E-1,-4.607253E-2,4.1782528E-1,-3.402176E-2,-4.0457007E-2,1.5832275E-2,2.71696E-1,-3.1127501E-2,-1.0433758E-2,-5.704567E-2,1.8449914E-1,6.3059814E-3,-5.909524E-2,-9.085159E-2,-3.7005786E-2,1.661281E-2,1.919466E-1,-3.6683276E-2,2.243562E-1,5.591851E-2,6.5217525E-2,-5.458359E-2],"split_indices":[400,112,463,192,227,539,81,400,136,0,0,187,20,0,0,468,228,0,0,184,0,0,0,192,10,150,0,120,0,0,211,0,0,0,0,0,0,0,0],"split_type":[0,0,0,0,0,0,0,0,0,0,0,0,0,0,0,0,0,0,0,0,0,0,0,0,0,0,0,0,0,0,0,0,0,0,0,0,0,0,0],"sum_hessian":[2.7141191E3,2.1503638E3,5.6375543E2,2.1344653E3,1.5898505E1,5.485865E2,1.5168892E1,2.1270098E3,7.4553847E0,1.1922007E1,3.9764988E0,5.4534534E2,3.2411833E0,1.4033949E1,1.134943E0,2.0950076E3,3.2002266E1,3.9954238E0,3.459961E0,5.4400793E2,1.3373754E0,2.1333861E0,1.1077973E0,2.0922847E3,2.722864E0,5.9474263E0,2.605484E1,5.426E2,1.4080025E0,2.0793892E3,1.2895491E1,1.6312139E0,1.09165E0,4.338942E0,1.6084843E0,5.413795E2,1.2204504E0,1.0798172E0,1.1815674E1],"tree_param":{"num_deleted":"0","num_feature":"576","num_nodes":"39","size_leaf_vector":"1"}},{"base_weights":[-2.0860559E-4,-5.545346E-1,2.1663127E0,-5.733497E-1,6.0287374E-1,2.2242756E0,-4.696759E-1,-5.7700753E-1,4.4894773E-1,1.7474793E0,-4.5690238E-1,2.238387E0,-4.346847E-2,-5.4265566E-2,1.519874E-2,-5.851576E-1,-3.2886288E-1,1.6104859E-1,-4.8283543E-2,2.0850685E-1,-4.06315E-2,6.0600724E-2,-5.5929422E-2,2.2425413E-1,1.4481055E-2,-4.686706E-1,-5.908748E-1,1.6688613E0,-5.3629667E-1,-5.5427426E-1,6.107172E-1,-5.9138108E-2,1.5352869E-2,1.9617903E-1,1.34276375E-2,5.1304674E-1,-5.8254838E-2,-5.749779E-1,1.575997E-1,-2.8266853E-1,1.6394803E-1,-3.0523656E-2,1.0530851E-1,1.6707735E-2,-5.857587E-2,6.2067408E-2,-3.3620503E-2,1.5310745E-2,-4.447108E-2],"categories":[],"categories_nodes":[],"categories_segments":[],"categories_sizes":[],"default_left":[0,0,0,0,0,0,0,0,0,0,0,0,0,0,0,0,0,0,0,0,0,0,0,0,0,0,0,0,0,0,0,0,0,0,0,0,0,0,0,0,0,0,0,0,0,0,0,0,0],"id":11,"left_children":[1,3,5,7,9,11,13,15,17,19,21,23,-1,-1,-1,25,27,-1,-1,-1,-1,-1,-1,-1,-1,29,31,33,35,37,39,-1,-1,-1,-1,41,-1,43,45,47,-1,-1,-1,-1,-1,-1,-1,-1,-1],"loss_changes":[3.2615366E3,4.7437378E1,8.558203E1,8.218018E0,4.3350002E1,2.1293701E1,6.600344E-1,4.097534E0,9.59919E0,1.3260014E1,2.4075427E0,4.3618164E0,0E0,0E0,0E0,1.0899658E0,2.9794037E1,0E0,0E0,0E0,0E0,0E0,0E0,0E0,0E0,9.657961E0,8.267822E-1,2.7948132E0,3.4018707E0,1.4756241E0,7.7122345E0,0E0,0E0,0E0,0E0,1.749138E0,0E0,8.301296E-1,9.954471E-1,4.263977E-1,0E0,0E0,0E0,0E0,0E0,0E0,0E0,0E0,0E0],"parents":[2147483647,0,0,1,1,2,2,3,3,4,4,5,5,6,6,7,7,8,8,9,9,10,10,11,11,15,15,16,16,25,25,26,26,27,27,28,28,29,29,30,30,35,35,37,37,38,38,39,39],"right_children":[2,4,6,8,10,12,14,16,18,20,22,24,-1,-1,-1,26,28,-1,-1,-1,-1,-1,-1,-1,-1,30,32,34,36,38,40,-1,-1,-1,-1,42,-1,44,46,48,-1,-1,-1,-1,-1,-1,-1,-1,-1],"split_conditions":[3.2268894E-1,2.2815983E-1,2.1653067E-1,2.046584E-1,1.6245287E-2,2.1499076E-1,4.7111452E-1,2.7129215E-1,2.8620887E-1,8.9817785E-2,-9.800015E-2,2.900963E-1,-4.346847E-2,-5.4265566E-2,1.519874E-2,-8.4730774E-2,-9.888877E-2,1.6104859E-1,-4.8283543E-2,2.0850685E-1,-4.06315E-2,6.0600724E-2,-5.5929422E-2,2.2425413E-1,1.4481055E-2,6.699068E-2,4.4020936E-1,-4.6089303E-2,-5.481431E-2,1.2521863E-1,7.0792194E-3,-5.9138108E-2,1.5352869E-2,1.9617903E-1,1.34276375E-2,4.6005182E-2,-5.8254838E-2,-6.563876E-2,-1.912273E-2,-2.1154862E-3,1.6394803E-1,-3.0523656E-2,1.0530851E-1,1.6707735E-2,-5.857587E-2,6.2067408E-2,-3.3620503E-2,1.5310745E-2,-4.447108E-2],"split_indices":[483,483,416,573,86,317,476,184,433,472,183,294,0,0,0,386,86,0,0,0,0,0,0,0,0,483,541,126,61,307,443,0,0,0,0,12,0,250,101,233,0,0,0,0,0,0,0,0,0],"split_type":[0,0,0,0,0,0,0,0,0,0,0,0,0,0,0,0,0,0,0,0,0,0,0,0,0,0,0,0,0,0,0,0,0,0,0,0,0,0,0,0,0,0,0,0,0,0,0,0,0],"sum_hessian":[2.7137761E3,2.1614832E3,5.522929E2,2.1274043E3,3.4078876E1,5.405626E2,1.1730269E1,2.1202534E3,7.1507683E0,1.6071753E1,1.8007124E1,5.378663E2,2.69637E0,1.0611616E1,1.1186525E0,2.0515156E3,6.873781E1,2.8587408E0,4.2920275E0,1.3921573E1,2.1501799E0,1.1500599E0,1.6857063E1,5.367301E2,1.1361675E0,9.9860374E1,1.9516553E3,5.8032646E0,6.2934544E1,9.297337E1,6.8870053E0,1.9505342E3,1.1211152E0,4.639306E0,1.1639585E0,2.2307854E0,6.070376E1,9.05327E1,2.4406753E0,4.0741854E0,2.8128197E0,1.0597721E0,1.1710132E0,1.0888462E0,8.944385E1,1.1269424E0,1.3137329E0,1.1192783E0,2.9549072E0],"tree_param":{"num_deleted":"0","num_feature":"576","num_nodes":"49","size_leaf_vector":"1"}},{"base_weights":[7.1331905E-4,-4.502323E-1,1.5870229E0,-5.0252706E-1,9.9436575E-1,1.7561619E0,-5.08812E-1,-5.185251E-1,9.849967E-1,1.7811678E-1,-4.8850635E-1,1.7862879E0,-4.636144E-2,-5.7223797E-2,9.911849E-2,2.784008E-2,-5.4675263E-1,1.6914017E-1,-5.1047184E-2,-5.6264937E-2,5.9482303E-2,1.8060694E0,4.9057898E-1,1.1783502E-1,-4.051312E-1,-3.4417725E-1,1.128761E0,-5.5510587E-1,1.430473E-1,6.3605154E-1,1.8160036E0,-4.794541E-2,1.40745E-1,-5.0780114E-2,1.360513E-2,3.053722E-1,-5.582286E-1,1.4442279E0,-2.986418E-1,-5.58141E-1,6.74307E-1,1.0788201E0,-4.2179972E-1,1.1904627E-1,-3.8807776E-2,5.4980576E-2,1.8177907E-1,-3.8625278E-2,1.3135336E-1,-5.751018E-2,1.4339483E-2,2.3483342E-2,1.5657262E0,-4.4890456E-2,1.4227569E-2,-5.6607515E-1,-7.887976E-2,-3.788812E-2,1.3693374E-1,-3.0464336E-2,1.2971463E0,-5.4492384E-2,3.5662945E-2,1.0497662E-1,-3.1653482E-1,1.6510677E0,1.3987467E-2,-5.735298E-1,-4.0371862E-1,1.534243E-1,-4.8882556E-1,1.5075834E0,5.0721985E-1,-5.345518E-2,4.632649E-2,1.7222025E0,4.6989925E-2,-4.5990685E-1,-5.8106476E-1,-4.808773E-1,1.0917535E0,6.5119945E-2,-5.6202512E-2,5.02696E-2,1.6876012E-1,1.1909063E-2,6.806632E-2,1.7859672E-1,5.3811796E-2,-5.155021E-1,3.9252478E-1,-5.8165616E-1,7.977459E-3,5.3397304E-1,-5.275509E-1,1.5809739E-1,-2.9309878E-2,-4.7286088E-3,-5.592E-2,1.4767383E-1,-4.6720203E-2,-5.828474E-2,-3.321659E-2,1.3779569E-1,-3.7145313E-2,4.4498067E-2,-5.5200726E-2],"categories":[],"categories_nodes":[],"categories_segments":[],"categories_sizes":[],"default_left":[0,0,0,0,0,0,0,0,0,0,0,0,0,0,0,0,0,0,0,0,0,0,0,0,0,0,0,0,0,0,0,0,0,0,0,0,0,0,0,0,0,0,0,0,0,0,0,0,0,0,0,0,0,0,0,0,0,0,0,0,0,0,0,0,0,0,0,0,0,0,0,0,0,0,0,0,0,0,0,0,0,0,0,0,0,0,0,0,0,0,0,0,0,0,0,0,0,0,0,0,0,0,0,0,0,0,0],"id":12,"left_children":[1,3,5,7,9,11,13,15,17,-1,19,21,23,-1,-1,25,27,-1,-1,-1,-1,29,31,-1,33,35,37,39,41,43,45,-1,-1,-1,-1,47,49,51,53,55,57,59,61,-1,-1,-1,-1,63,-1,-1,-1,-1,65,-1,-1,67,69,-1,-1,-1,71,-1,-1,-1,73,75,-1,77,79,-1,81,83,85,-1,-1,87,-1,89,91,93,95,-1,-1,-1,-1,-1,-1,-1,-1,97,99,101,-1,103,105,-1,-1,-1,-1,-1,-1,-1,-1,-1,-1,-1,-1],"loss_changes":[1.9178854E3,1.5820947E2,2.112666E2,4.847119E1,8.635408E1,2.991455E1,4.8572197E0,3.077655E1,2.388152E1,0E0,2.437796E0,1.2964233E1,4.873662E0,0E0,0E0,4.090936E1,1.1007996E1,0E0,0E0,0E0,0E0,5.0268555E0,9.122747E0,0E0,5.404093E-1,1.0558628E1,1.178875E1,7.369568E0,1.2870043E1,3.8782737E0,1.9262695E-1,0E0,0E0,0E0,0E0,6.69733E0,7.519398E-1,2.6927795E0,4.2123586E-1,7.066345E0,4.228752E0,3.150484E0,1.6670456E0,0E0,0E0,0E0,0E0,4.9483204E0,0E0,0E0,0E0,0E0,2.0506668E0,0E0,0E0,1.994751E0,2.1657972E1,0E0,0E0,0E0,5.7662964E-1,0E0,0E0,0E0,2.445033E0,6.6942596E-1,0E0,1.2363892E0,1.0232516E1,0E0,2.5330462E0,2.125349E-1,1.346569E-1,0E0,0E0,2.638893E-1,0E0,5.6061153E0,6.887207E-1,4.1039696E0,3.467021E0,0E0,0E0,0E0,0E0,0E0,0E0,0E0,0E0,2.1725216E0,7.7266126E0,2.944336E-1,0E0,3.6029146E0,2.092516E0,0E0,0E0,0E0,0E0,0E0,0E0,0E0,0E0,0E0,0E0,0E0,0E0],"parents":[2147483647,0,0,1,1,2,2,3,3,4,4,5,5,6,6,7,7,8,8,10,10,11,11,12,12,15,15,16,16,21,21,22,22,24,24,25,25,26,26,27,27,28,28,29,29,30,30,35,35,36,36,37,37,38,38,39,39,40,40,41,41,42,42,47,47,52,52,55,55,56,56,60,60,64,64,65,65,67,67,68,68,70,70,71,71,72,72,75,75,77,77,78,78,79,79,80,80,89,89,90,90,91,91,93,93,94,94],"right_children":[2,4,6,8,10,12,14,16,18,-1,20,22,24,-1,-1,26,28,-1,-1,-1,-1,30,32,-1,34,36,38,40,42,44,46,-1,-1,-1,-1,48,50,52,54,56,58,60,62,-1,-1,-1,-1,64,-1,-1,-1,-1,66,-1,-1,68,70,-1,-1,-1,72,-1,-1,-1,74,76,-1,78,80,-1,82,84,86,-1,-1,88,-1,90,92,94,96,-1,-1,-1,-1,-1,-1,-1,-1,98,100,102,-1,104,106,-1,-1,-1,-1,-1,-1,-1,-1,-1,-1,-1,-1],"split_conditions":[2.8325063E-1,2.1632657E0,2.4717134E-1,4.6123E-1,6.673495E-2,4.1018724E-2,4.4745788E-1,2.1898786E-2,1.6140893E-1,1.7811678E-1,3.6857376E-1,3.5072094E-1,-7.931438E-2,-5.7223797E-2,9.911849E-2,3.5398874E-1,4.394714E-1,1.6914017E-1,-5.1047184E-2,-5.6264937E-2,5.9482303E-2,9.590953E-2,2.4402404E-2,1.1783502E-1,7.294493E-2,-8.9172594E-2,-5.5171225E-2,2.6854113E-1,-1.0721327E-1,-4.7341824E-2,-1.25774E-1,-4.794541E-2,1.40745E-1,-5.0780114E-2,1.360513E-2,-1.2562056E-2,4.0268794E-1,-4.9575668E-2,6.188522E-2,2.9878604E-1,2.1832149E-1,-2.03484E-2,-5.066216E-3,1.1904627E-1,-3.8807776E-2,5.4980576E-2,1.8177907E-1,-1.2966672E-1,1.3135336E-1,-5.751018E-2,1.4339483E-2,2.3483342E-2,8.055003E-2,-4.4890456E-2,1.4227569E-2,8.971071E-2,7.398513E-2,-3.788812E-2,1.3693374E-1,-3.0464336E-2,-8.071926E-3,-5.4492384E-2,3.5662945E-2,1.0497662E-1,-3.950399E-3,1.084556E-1,1.3987467E-2,-1.4757082E-1,4.4745788E-1,1.534243E-1,-1.4519398E-1,-3.5604503E-2,-7.543815E-3,-5.345518E-2,4.632649E-2,-2.6596488E-2,4.6989925E-2,2.1015045E-1,1.9314266E0,-1.2978853E-1,-2.9694517E-3,6.5119945E-2,-5.6202512E-2,5.02696E-2,1.6876012E-1,1.1909063E-2,6.806632E-2,1.7859672E-1,5.3811796E-2,1.297157E-1,3.4809606E-3,1.147744E0,7.977459E-3,2.3013107E-2,-1.543363E-1,1.5809739E-1,-2.9309878E-2,-4.7286088E-3,-5.592E-2,1.4767383E-1,-4.6720203E-2,-5.828474E-2,-3.321659E-2,1.3779569E-1,-3.7145313E-2,4.4498067E-2,-5.5200726E-2],"split_indices":[549,209,211,303,66,197,13,433,518,0,73,516,139,0,0,102,396,0,0,0,0,332,276,0,234,413,227,304,413,123,377,0,0,0,0,353,434,437,295,303,54,154,367,0,0,0,0,506,0,0,0,0,219,0,0,239,227,0,0,0,519,0,0,0,401,187,0,275,13,0,206,45,14,0,0,381,0,125,72,136,168,0,0,0,0,0,0,0,0,433,5,34,0,113,317,0,0,0,0,0,0,0,0,0,0,0,0],"split_type":[0,0,0,0,0,0,0,0,0,0,0,0,0,0,0,0,0,0,0,0,0,0,0,0,0,0,0,0,0,0,0,0,0,0,0,0,0,0,0,0,0,0,0,0,0,0,0,0,0,0,0,0,0,0,0,0,0,0,0,0,0,0,0,0,0,0,0,0,0,0,0,0,0,0,0,0,0,0,0,0,0,0,0,0,0,0,0,0,0,0,0,0,0,0,0,0,0,0,0,0,0,0,0,0,0,0,0],"sum_hessian":[2.6790857E3,2.086629E3,5.9245685E2,2.0143607E3,7.22682E1,5.4836456E2,4.4092285E1,1.9935717E3,2.0789062E1,4.708438E1,2.518382E1,5.393592E2,9.005419E0,4.2896935E1,1.1953506E0,9.793714E1,1.8956345E3,1.403053E1,6.7585316E0,2.4020489E1,1.1633321E0,5.3086066E2,8.498523E0,1.5227783E0,7.4826403E0,7.37151E1,2.422204E1,1.8731465E3,2.248796E1,5.0168176E0,5.258438E2,4.3613586E0,4.1371636E0,6.3412905E0,1.1413493E0,1.8165218E1,5.5549885E1,1.9828093E1,4.393946E0,1.8690782E3,4.0682335E0,8.122167E0,1.4365794E1,3.1494513E0,1.8673663E0,1.1761764E0,5.2466766E2,1.4260905E1,3.9043143E0,5.4421444E1,1.1284418E0,2.077861E0,1.7750233E1,3.263608E0,1.130338E0,1.8384614E3,3.0616846E1,1.7982278E0,2.2700057E0,1.0531745E0,7.068992E0,1.2662877E1,1.702917E0,2.3357844E0,1.192512E1,1.6598793E1,1.15144E0,1.7553326E3,8.312883E1,5.648326E0,2.496852E1,4.864558E0,2.204434E0,9.565338E0,2.3597827E0,1.5223898E1,1.3748949E0,1.1302485E2,1.6423077E3,7.96954E1,3.4334297E0,1.0300527E0,2.3938467E1,1.3152282E0,3.54933E0,1.2017652E0,1.0026686E0,1.3963626E1,1.2602718E0,1.064758E2,6.549051E0,1.640959E3,1.3487985E0,3.0450273E0,7.665037E1,2.4324944E0,1.0009352E0,9.266703E0,9.720909E1,2.57898E0,3.9700708E0,1.6318312E3,9.127751E0,1.3058784E0,1.7391487E0,1.4584601E0,7.519191E1],"tree_param":{"num_deleted":"0","num_feature":"576","num_nodes":"107","size_leaf_vector":"1"}},{"base_weights":[-2.1360096E-4,-5.220274E-1,1.677637E0,-5.6332356E-1,1.0464982E0,1.7782927E0,-4.6677756E-1,-5.743669E-1,9.21351E-1,1.4891591E0,-5.3831328E-2,-3.52644E-1,1.7985349E0,-5.647561E-2,1.0329636E-1,3.604637E-1,-5.777772E-1,-4.9169373E-2,1.7212044E-1,1.6880249E0,1.188525E-1,-4.8311792E-2,1.4919378E-2,1.808649E0,-4.2202316E-2,1.4823346E-1,-4.7373865E-2,-5.80705E-1,2.6476017E-1,1.737843E0,3.7888445E-2,-4.3211054E-2,6.710438E-1,1.813805E-1,-3.3177402E-2,-5.8316296E-1,-3.4931117E-1,-4.745575E-2,1.374744E-1,8.220212E-1,1.8148306E-1,3.0495112E-3,1.123667E-1,1.8204292E-3,-5.8366483E-1,1.1016264E-1,-5.574298E-2,1.0912081E-1,8.317116E-3,-2.9278398E-3,-5.841701E-2],"categories":[],"categories_nodes":[],"categories_segments":[],"categories_sizes":[],"default_left":[0,0,0,0,0,0,0,0,0,0,0,0,0,0,0,0,0,0,0,0,0,0,0,0,0,0,0,0,0,0,0,0,0,0,0,0,0,0,0,0,0,0,0,0,0,0,0,0,0,0,0],"id":13,"left_children":[1,3,5,7,9,11,13,15,17,19,-1,21,23,-1,-1,25,27,-1,-1,29,31,-1,-1,33,-1,-1,-1,35,37,39,-1,-1,41,-1,-1,43,45,-1,-1,47,-1,-1,-1,-1,49,-1,-1,-1,-1,-1,-1],"loss_changes":[2.3487852E3,1.3313739E2,1.3819653E2,3.322998E1,3.7872894E1,2.6863647E1,4.892421E0,6.5217285E0,1.7923767E1,1.1127861E1,0E0,5.014742E-1,1.4295044E1,0E0,0E0,8.015079E0,5.0219727E0,0E0,0E0,1.7042465E0,2.2201052E0,0E0,0E0,7.2232666E0,0E0,0E0,0E0,9.1503906E-1,6.824384E0,9.4914246E-1,0E0,0E0,9.979534E-1,0E0,0E0,5.975952E-1,7.610326E0,0E0,0E0,8.067503E-1,0E0,0E0,0E0,0E0,5.272827E-1,0E0,0E0,0E0,0E0,0E0,0E0],"parents":[2147483647,0,0,1,1,2,2,3,3,4,4,5,5,6,6,7,7,8,8,9,9,11,11,12,12,15,15,16,16,19,19,20,20,23,23,27,27,28,28,29,29,32,32,35,35,36,36,39,39,44,44],"right_children":[2,4,6,8,10,12,14,16,18,20,-1,22,24,-1,-1,26,28,-1,-1,30,32,-1,-1,34,-1,-1,-1,36,38,40,-1,-1,42,-1,-1,44,46,-1,-1,48,-1,-1,-1,-1,50,-1,-1,-1,-1,-1,-1],"split_conditions":[3.7925455E-1,4.1124898E-1,1.0502631E-1,3.3290726E-1,5.479507E-3,2.1641599E-2,1.1286691E0,-1.7546125E-1,3.5855442E-1,-3.832395E-2,-5.3831328E-2,6.889527E-2,2.3548329E-1,-5.647561E-2,1.0329636E-1,-3.482679E-2,2.5090367E-1,-4.9169373E-2,1.7212044E-1,7.0111305E-1,-3.713004E-3,-4.8311792E-2,1.4919378E-2,1.2104082E-1,-4.2202316E-2,1.4823346E-1,-4.7373865E-2,3.229638E-1,-6.555711E-3,-7.042269E-2,3.7888445E-2,-4.3211054E-2,3.576317E-1,1.813805E-1,-3.3177402E-2,-1.9951797E-1,-8.523748E-2,-4.745575E-2,1.374744E-1,-2.1195855E-2,1.8148306E-1,3.0495112E-3,1.123667E-1,1.8204292E-3,-1.7835827E-1,1.1016264E-1,-5.574298E-2,1.0912081E-1,8.317116E-3,-2.9278398E-3,-5.841701E-2],"split_indices":[152,8,388,162,444,2,23,454,23,300,0,212,193,0,0,11,233,0,0,209,146,0,0,19,0,0,0,8,1,336,0,0,73,0,0,342,41,0,0,25,0,0,0,0,350,0,0,0,0,0,0],"split_type":[0,0,0,0,0,0,0,0,0,0,0,0,0,0,0,0,0,0,0,0,0,0,0,0,0,0,0,0,0,0,0,0,0,0,0,0,0,0,0,0,0,0,0,0,0,0,0,0,0,0,0],"sum_hessian":[2.6807144E3,2.0453092E3,6.35405E2,1.9934661E3,5.184315E1,6.070803E2,2.8324732E1,1.9793563E3,1.410974E1,4.0571342E1,1.127181E1,5.5579934E0,6.0152234E2,2.7172947E1,1.151786E0,6.8139715E0,1.9725424E3,5.2392306E0,8.87051E0,3.5227142E1,5.3442E0,4.4407387E0,1.1172549E0,5.989797E2,2.5426836E0,2.5745964E0,4.239375E0,1.9660214E3,6.521032E0,3.3620285E1,1.6068588E0,2.7839274E0,2.5602727E0,5.976925E2,1.2871655E0,1.9438524E3,2.2168901E1,4.257643E0,2.2633886E0,3.5126104E0,3.0107674E1,1.5020117E0,1.0582609E0,1.591413E0,1.942261E3,2.2423916E0,1.992651E1,2.2250519E0,1.2875586E0,1.8223424E0,1.9404387E3],"tree_param":{"num_deleted":"0","num_feature":"576","num_nodes":"51","size_leaf_vector":"1"}},{"base_weights":[4.8628388E-4,-4.9300572E-1,1.6191126E0,5.0162107E-1,-5.5994767E-1,1.7290968E0,-4.7564155E-1,1.136179E0,-4.8075438E-1,-5.6441826E-1,9.3098325E-1,1.7782341E0,-1.8545388E-1,-5.664267E-2,5.801428E-2,1.5022802E-1,1.6140907E0,-5.737352E-2,1.1428646E-1,-5.664385E-1,1.2743704E-1,1.5317762E-1,-3.716957E-2,1.7926136E0,-2.696913E-1,-5.4468613E-2,1.320118E-1,-2.5470182E-1,1.0253019E0,1.6667054E0,-3.2479238E-2,-3.4099633E-1,-5.777511E-1,1.802381E0,-4.156523E-2,-4.3453895E-2,1.5775524E-2,-5.4644294E-2,5.393289E-1,1.3779402E0,-3.6105838E-2,8.6239004E-1,1.8094363E0,-4.6834376E-1,1.2977172E0,-5.782756E-1,6.6689043E-3,1.8077241E0,-3.3074122E-2,-3.3073284E-2,8.677363E-1,1.5936959E-1,1.3623456E-2,-3.6199316E-2,1.1417303E0,1.856843E-1,7.119647E-1,7.0202017E-1,-5.3218853E-1,-3.2675825E-2,1.7063642E-1,-5.8035153E-1,-3.5344517E-1,1.811183E0,7.024691E-1,1.701955E-2,1.0290499E-1,1.4424744E-1,4.96921E-1,1.0402973E-1,8.927904E-3,-3.357896E-2,1.16149954E-1,-5.548194E-1,6.686155E-2,-5.814237E-1,-1.9114196E-1,8.874397E-2,-5.5158604E-2,1.8135165E-1,4.7895342E-2,9.895814E-2,1.0314039E-2,7.858691E-3,6.614677E-2,5.450798E-2,-5.7809737E-2,-5.8196347E-2,-3.5385545E-3,5.739483E-2,-4.7472518E-2],"categories":[],"categories_nodes":[],"categories_segments":[],"categories_sizes":[],"default_left":[0,0,0,0,0,0,0,0,0,0,0,0,0,0,0,0,0,0,0,0,0,0,0,0,0,0,0,0,0,0,0,0,0,0,0,0,0,0,0,0,0,0,0,0,0,0,0,0,0,0,0,0,0,0,0,0,0,0,0,0,0,0,0,0,0,0,0,0,0,0,0,0,0,0,0,0,0,0,0,0,0,0,0,0,0,0,0,0,0,0,0],"id":14,"left_children":[1,3,5,7,9,11,13,15,17,19,21,23,25,-1,-1,27,29,-1,-1,31,-1,-1,-1,33,35,-1,-1,37,39,41,-1,43,45,47,-1,-1,-1,-1,49,51,-1,53,55,57,59,61,-1,63,-1,-1,65,-1,-1,-1,67,-1,69,71,73,-1,-1,75,77,79,81,-1,-1,-1,83,-1,-1,-1,-1,85,-1,87,89,-1,-1,-1,-1,-1,-1,-1,-1,-1,-1,-1,-1,-1,-1],"loss_changes":[2.1419736E3,1.3710873E2,1.451709E2,8.165709E1,1.3362305E1,5.6352173E1,3.3995757E0,3.7146942E1,8.47058E0,7.8571167E0,5.370901E0,1.758374E1,9.268145E0,0E0,0E0,9.831328E0,5.9829254E0,0E0,0E0,4.697998E0,0E0,0E0,0E0,1.3189819E1,4.1510043E-1,0E0,0E0,4.757513E0,4.7718477E0,4.4201508E0,0E0,2.0255661E1,6.558838E-1,7.1448975E0,0E0,0E0,0E0,0E0,1.9098828E0,1.7058353E0,0E0,3.7520952E0,9.325104E-1,6.9563026E0,5.2404146E0,6.4660645E-1,0E0,9.187012E-1,0E0,0E0,3.1988335E-1,0E0,0E0,0E0,8.712902E-1,0E0,6.0555816E-1,2.7687283E0,2.6566086E0,0E0,0E0,6.4282227E-1,5.2231135E0,9.057617E-1,4.867084E-1,0E0,0E0,0E0,2.3232377E-1,0E0,0E0,0E0,0E0,2.4427204E0,0E0,5.1013184E-1,1.672493E0,0E0,0E0,0E0,0E0,0E0,0E0,0E0,0E0,0E0,0E0,0E0,0E0,0E0,0E0],"parents":[2147483647,0,0,1,1,2,2,3,3,4,4,5,5,6,6,7,7,8,8,9,9,10,10,11,11,12,12,15,15,16,16,19,19,23,23,24,24,27,27,28,28,29,29,31,31,32,32,33,33,38,38,39,39,41,41,42,42,43,43,44,44,45,45,47,47,50,50,54,54,56,56,57,57,58,58,61,61,62,62,63,63,64,64,68,68,73,73,75,75,76,76],"right_children":[2,4,6,8,10,12,14,16,18,20,22,24,26,-1,-1,28,30,-1,-1,32,-1,-1,-1,34,36,-1,-1,38,40,42,-1,44,46,48,-1,-1,-1,-1,50,52,-1,54,56,58,60,62,-1,64,-1,-1,66,-1,-1,-1,68,-1,70,72,74,-1,-1,76,78,80,82,-1,-1,-1,84,-1,-1,-1,-1,86,-1,88,90,-1,-1,-1,-1,-1,-1,-1,-1,-1,-1,-1,-1,-1,-1],"split_conditions":[1.0116654E-1,-9.031979E-3,2.6678565E-1,1.2161287E-2,3.6198384E-1,2.214938E-1,2.1752109E-1,-6.353233E-2,1.5368494E-1,4.0354827E-1,1.9112477E-2,4.7691303E-1,7.12216E-2,-5.664267E-2,5.801428E-2,-4.249161E-2,1.0098051E-1,-5.737352E-2,1.1428646E-1,7.5205006E-2,1.2743704E-1,1.5317762E-1,-3.716957E-2,2.437058E-1,3.3958297E-2,-5.4468613E-2,1.320118E-1,9.988629E-1,1.5252678E-2,1.5365931E-1,-3.2479238E-2,1.4064896E-1,4.0536997E-1,4.1355175E-1,-4.156523E-2,-4.3453895E-2,1.5775524E-2,-5.4644294E-2,-3.698766E-2,-7.0822686E-3,-3.6105838E-2,-1.42316E-2,8.244139E-2,-1.338023E-1,-3.2483786E-2,2.6297715E-1,6.6689043E-3,1.0629213E0,-3.3074122E-2,-3.3073284E-2,-6.833896E-2,1.5936959E-1,1.3623456E-2,-3.6199316E-2,-3.5119206E-2,1.856843E-1,-6.3558355E-2,-2.4006007E-2,4.1200066E-1,-3.2675825E-2,1.7063642E-1,2.5972188E0,-8.205987E-3,2.5178275E-1,-2.7176576E-2,1.701955E-2,1.0290499E-1,1.4424744E-1,-2.1406757E-2,1.0402973E-1,8.927904E-3,-3.357896E-2,1.16149954E-1,-1.7146994E-1,6.686155E-2,3.0322018E-1,-2.1399079E-2,8.874397E-2,-5.5158604E-2,1.8135165E-1,4.7895342E-2,9.895814E-2,1.0314039E-2,7.858691E-3,6.614677E-2,5.450798E-2,-5.7809737E-2,-5.8196347E-2,-3.5385545E-3,5.739483E-2,-4.7472518E-2],"split_indices":[211,267,256,77,156,544,223,381,173,141,25,504,299,0,0,223,493,0,0,267,0,0,0,184,531,0,0,557,471,433,0,107,516,369,0,0,0,0,266,96,0,322,517,49,151,216,0,81,0,0,333,0,0,0,415,0,10,153,14,0,0,557,493,302,9,0,0,0,239,0,0,0,0,284,0,19,8,0,0,0,0,0,0,0,0,0,0,0,0,0,0],"split_type":[0,0,0,0,0,0,0,0,0,0,0,0,0,0,0,0,0,0,0,0,0,0,0,0,0,0,0,0,0,0,0,0,0,0,0,0,0,0,0,0,0,0,0,0,0,0,0,0,0,0,0,0,0,0,0,0,0,0,0,0,0,0,0,0,0,0,0,0,0,0,0,0,0,0,0,0,0,0,0,0,0,0,0,0,0,0,0,0,0,0,0],"sum_hessian":[2.67956E3,2.0540195E3,6.2554065E2,1.2911586E2,1.9249036E3,5.945012E2,3.1039474E1,7.834982E1,5.0766037E1,1.9197686E3,5.1350613E0,5.796944E2,1.4806775E1,2.9008577E1,2.0308971E0,2.6008202E1,5.2341625E1,4.862787E1,2.1381707E0,1.9183528E3,1.4157078E0,3.3939238E0,1.7411373E0,5.757763E2,3.918141E0,1.2469701E1,2.3370745E0,1.8265158E1,7.7430444E0,5.1095444E1,1.2461791E0,9.315048E1,1.8252023E3,5.7342377E2,2.3525314E0,2.8156674E0,1.1024735E0,1.3585436E1,4.6797223E0,6.1777334E0,1.565311E0,8.762001E0,4.2333443E1,8.709627E1,6.0542107E0,1.8238206E3,1.3818237E0,5.721432E2,1.2805643E0,1.2804086E0,3.3993137E0,5.0217013E0,1.1560317E0,1.5727142E0,7.1892867E0,3.9917244E1,2.416199E0,3.9883575E0,8.310791E1,1.2571418E0,4.797069E0,1.805568E3,1.825251E1,5.6972156E2,2.4216194E0,1.024463E0,2.3748505E0,4.059056E0,3.1302307E0,1.1429023E0,1.2732966E0,1.3065331E0,2.6818247E0,8.209861E1,1.0093045E0,1.8001152E3,5.452718E0,2.0342019E0,1.6218307E1,5.683648E2,1.3567559E0,1.1970265E0,1.2245928E0,1.3007852E0,1.8294455E0,1.2369261E0,8.086168E1,1.798272E3,1.843317E0,1.1976409E0,4.255077E0],"tree_param":{"num_deleted":"0","num_feature":"576","num_nodes":"91","size_leaf_vector":"1"}},{"base_weights":[-5.3693493E-5,-5.2065164E-1,1.677254E0,-5.6537753E-1,5.082567E-1,1.7703941E0,-4.9221927E-1,-5.7221025E-1,4.78914E-1,1.7119229E0,-4.7270712E-1,3.5493013E-1,1.8078871E0,-5.627597E-2,6.4958096E-2,-5.746896E-1,7.582097E-1,1.608064E-1,-5.1255643E-2,1.7944221E-1,-3.4136023E-2,-5.727407E-2,1.1179111E-1,1.0065336E0,-5.151834E-2,1.8133296E0,-3.413545E-2,-5.7716304E-1,1.8571451E-1,1.349061E-1,-3.237314E-2,1.4934176E0,-4.1499708E-2,1.8166038E-1,1.1172434E-2,-5.7815737E-1,4.2538468E-2,-4.7448114E-2,1.3525224E-1,4.974014E-2,1.6196443E-1,-5.786637E-1,1.0002482E-2,-5.8013976E-1,-2.7562183E-1,-5.8064204E-1,7.488756E-3,1.0632914E-1,-5.2740633E-2,-2.0989755E-1,-5.8165854E-1,6.2274344E-2,-4.8239436E-2,-3.401371E-2,-5.826663E-2],"categories":[],"categories_nodes":[],"categories_segments":[],"categories_sizes":[],"default_left":[0,0,0,0,0,0,0,0,0,0,0,0,0,0,0,0,0,0,0,0,0,0,0,0,0,0,0,0,0,0,0,0,0,0,0,0,0,0,0,0,0,0,0,0,0,0,0,0,0,0,0,0,0,0,0],"id":15,"left_children":[1,3,5,7,9,11,13,15,17,19,21,23,25,-1,-1,27,29,-1,-1,-1,-1,-1,-1,31,-1,33,-1,35,37,-1,-1,39,-1,-1,-1,41,-1,-1,-1,-1,-1,43,-1,45,47,49,-1,-1,-1,51,53,-1,-1,-1,-1],"loss_changes":[2.342352E3,9.449286E1,1.2925854E2,1.4275818E1,1.02124725E2,3.1701172E1,2.5351958E0,6.868042E0,1.571401E1,7.1758575E0,8.287364E0,1.0140334E1,7.560913E0,0E0,0E0,3.769043E0,3.0311368E0,0E0,0E0,0E0,0E0,0E0,0E0,7.5702305E0,0E0,3.0960693E0,0E0,2.180664E0,6.087136E0,0E0,0E0,1.6217232E-1,0E0,0E0,0E0,7.2387695E-1,0E0,0E0,0E0,0E0,0E0,7.069702E-1,0E0,6.777344E-1,4.369976E0,6.039429E-1,0E0,0E0,0E0,1.8505416E0,2.692871E-1,0E0,0E0,0E0,0E0],"parents":[2147483647,0,0,1,1,2,2,3,3,4,4,5,5,6,6,7,7,8,8,9,9,10,10,11,11,12,12,15,15,16,16,23,23,25,25,27,27,28,28,31,31,35,35,41,41,43,43,44,44,45,45,49,49,50,50],"right_children":[2,4,6,8,10,12,14,16,18,20,22,24,26,-1,-1,28,30,-1,-1,-1,-1,-1,-1,32,-1,34,-1,36,38,-1,-1,40,-1,-1,-1,42,-1,-1,-1,-1,-1,44,-1,46,48,50,-1,-1,-1,52,54,-1,-1,-1,-1],"split_conditions":[1.4925496E-1,1.23642735E-1,2.1553147E-1,1.0731077E0,-1.8257273E-2,2.4271615E-1,6.675201E-1,3.335785E-1,5.8675356E-2,6.0664967E-2,6.878536E-1,-2.5789242E-2,2.5662032E-1,-5.627597E-2,6.4958096E-2,1.0719872E0,-1.4434675E-2,1.608064E-1,-5.1255643E-2,1.7944221E-1,-3.4136023E-2,-5.727407E-2,1.1179111E-1,2.109302E-1,-5.151834E-2,1.2972169E-1,-3.413545E-2,4.9966508E-1,4.654579E-1,1.349061E-1,-3.237314E-2,-1.4482248E-1,-4.1499708E-2,1.8166038E-1,1.1172434E-2,1.7250439E0,4.2538468E-2,-4.7448114E-2,1.3525224E-1,4.974014E-2,1.6196443E-1,3.952671E-1,1.0002482E-2,3.7889746E-1,-6.26525E-2,-1.4893028E-1,7.488756E-3,1.0632914E-1,-5.2740633E-2,-5.929578E-2,-1.792399E-1,6.2274344E-2,-4.8239436E-2,-3.401371E-2,-5.826663E-2],"split_indices":[246,417,226,456,476,504,504,389,558,96,456,550,243,0,0,398,122,0,0,0,0,0,0,480,0,291,0,177,435,0,0,87,0,0,0,143,0,0,0,0,0,510,0,462,22,270,0,0,0,27,206,0,0,0,0],"split_type":[0,0,0,0,0,0,0,0,0,0,0,0,0,0,0,0,0,0,0,0,0,0,0,0,0,0,0,0,0,0,0,0,0,0,0,0,0,0,0,0,0,0,0,0,0,0,0,0,0,0,0,0,0,0,0],"sum_hessian":[2.680483E3,2.0461074E3,6.3437537E2,1.9613016E3,8.480583E1,6.084378E2,2.5937592E1,1.9490015E3,1.2300169E1,3.7745747E1,4.7060085E1,1.5970567E1,5.924672E2,2.4906027E1,1.0315654E0,1.945943E3,3.0584068E0,5.4600344E0,6.8401346E0,3.6408936E1,1.3368107E0,4.4877666E1,2.1824188E0,9.042276E0,6.92829E0,5.911266E2,1.3406289E0,1.939874E3,6.068982E0,1.8184541E0,1.2399527E0,6.697698E0,2.344578E0,5.899239E2,1.202696E0,1.9383749E3,1.4991717E0,4.2548704E0,1.814112E0,1.3090358E0,5.3886623E0,1.9370753E3,1.2995112E0,1.9267761E3,1.029929E1,1.9254133E3,1.3627341E0,1.1200712E0,9.179218E0,5.832033E0,1.9195813E3,1.1210943E0,4.710939E0,9.382697E0,1.9101986E3],"tree_param":{"num_deleted":"0","num_feature":"576","num_nodes":"55","size_leaf_vector":"1"}},{"base_weights":[-5.5982976E-4,-5.678998E-1,1.7029498E0,-5.759936E-1,1.6275074E-1,1.7761165E0,-5.159408E-1,-5.831957E-1,-2.6006746E-1,1.7965767E0,-4.9814876E-2,1.5609567E-2,-5.5859733E-2,-5.8369067E-2,-1.5991804E-1,-5.4396987E-1,8.7745285E-1,1.8078413E0,-2.3486549E-1,1.7355677E-2,-3.647999E-2,1.4189199E-2,-5.689254E-2,1.6957828E-1,-4.540295E-2,1.8118838E0,-3.0857885E-2,-4.1518122E-2,1.6840301E-2,1.8137677E0,5.0192703E-2,5.050389E-2,1.8156363E-1],"categories":[],"categories_nodes":[],"categories_segments":[],"categories_sizes":[],"default_left":[0,0,0,0,0,0,0,0,0,0,0,0,0,0,0,0,0,0,0,0,0,0,0,0,0,0,0,0,0,0,0,0,0],"id":16,"left_children":[1,3,5,7,-1,9,11,13,15,17,-1,-1,-1,-1,19,21,23,25,27,-1,-1,-1,-1,-1,-1,29,-1,-1,-1,31,-1,-1,-1],"loss_changes":[2.593483E3,3.6707214E1,1.09759155E2,4.413452E0,0E0,3.1105713E1,7.2291183E-1,3.1750488E-1,1.5502107E1,1.5154053E1,0E0,0E0,0E0,0E0,3.138922E-1,7.2855663E-1,1.1311802E1,6.036865E0,3.9238396E-1,0E0,0E0,0E0,0E0,0E0,0E0,6.669922E-1,0E0,0E0,0E0,6.4282227E-1,0E0,0E0,0E0],"parents":[2147483647,0,0,1,1,2,2,3,3,5,5,6,6,7,7,8,8,9,9,14,14,15,15,16,16,17,17,18,18,25,25,29,29],"right_children":[2,4,6,8,-1,10,12,14,16,18,-1,-1,-1,-1,20,22,24,26,28,-1,-1,-1,-1,-1,-1,30,-1,-1,-1,32,-1,-1,-1],"split_conditions":[4.236432E-1,4.0493817E0,1.3685256E-1,3.4965554E-1,1.6275074E-1,1.863814E-1,-4.123789E-2,2.7536442E0,1.3722065E-1,1.6846392E-1,-4.9814876E-2,1.5609567E-2,-5.5859733E-2,-5.8369067E-2,-1.3636381E-2,-1.1563851E-1,1.1604848E-1,2.9960927E-1,2.2432385E-1,1.7355677E-2,-3.647999E-2,1.4189199E-2,-5.689254E-2,1.6957828E-1,-4.540295E-2,1.061846E0,-3.0857885E-2,-4.1518122E-2,1.6840301E-2,-1.4823477E-1,5.0192703E-2,5.050389E-2,1.8156363E-1],"split_indices":[400,468,463,528,0,420,562,468,77,350,0,0,0,0,366,463,227,25,160,0,0,0,0,0,0,138,0,0,0,73,0,0,0],"split_type":[0,0,0,0,0,0,0,0,0,0,0,0,0,0,0,0,0,0,0,0,0,0,0,0,0,0,0,0,0,0,0,0,0],"sum_hessian":[2.6814607E3,2.0120354E3,6.6942535E2,2.0053799E3,6.65553E0,6.4824927E2,2.1176107E1,1.9598555E3,4.552437E1,6.426775E2,5.5717444E0,1.1051738E0,2.0070932E1,1.9571879E3,2.667564E0,3.6849308E1,8.675059E0,6.392429E2,3.4346197E0,1.0733786E0,1.5941854E0,1.1292052E0,3.5720104E1,5.2034254E0,3.471634E0,6.3816785E2,1.0750636E0,2.3529787E0,1.081641E0,6.368674E2,1.3004806E0,1.2947599E0,6.355726E2],"tree_param":{"num_deleted":"0","num_feature":"576","num_nodes":"33","size_leaf_vector":"1"}},{"base_weights":[-3.7163688E-4,-5.6091946E-1,1.7573931E0,-5.7777E-1,-9.677813E-2,1.7948209E0,-2.3840246E-1,-5.7923985E-1,4.1122172E-2,9.2245823E-1,-4.663505E-1,1.807554E0,-4.5672346E-2,-5.3403743E-2,1.0438559E-1,-5.797317E-1,1.4174255E-2,1.0707139E-1,-4.5410413E-2,1.5835859E0,-5.015718E-2,-5.5203867E-1,6.949845E-2,-3.521699E-2,1.8132526E0,-2.4326646E-1,-5.8071333E-1,1.7555849E-1,-2.9330805E-2,-5.729968E-2,1.7840035E-2,1.1718845E-1,-4.9088392E-2,1.8156197E0,1.6949506E-2,5.5835105E-2,-4.903413E-2,-2.926257E-1,-5.8170505E-2,5.0789256E-2,1.8174963E-1,-5.0864458E-2,5.918292E-2],"categories":[],"categories_nodes":[],"categories_segments":[],"categories_sizes":[],"default_left":[0,0,0,0,0,0,0,0,0,0,0,0,0,0,0,0,0,0,0,0,0,0,0,0,0,0,0,0,0,0,0,0,0,0,0,0,0,0,0,0,0,0,0],"id":17,"left_children":[1,3,5,7,9,11,13,15,17,19,21,23,-1,-1,-1,25,-1,-1,-1,27,-1,29,31,-1,33,35,37,-1,-1,-1,-1,-1,-1,39,-1,-1,-1,41,-1,-1,-1,-1,-1],"loss_changes":[2.643663E3,1.5854614E1,4.8887817E1,1.8094482E0,2.7728115E1,1.908545E1,5.419127E0,7.766113E-1,3.33366E0,1.9266275E1,2.5108938E0,8.435791E0,0E0,0E0,0E0,5.0512695E-1,0E0,0E0,0E0,4.918274E0,0E0,8.1464195E-1,5.7101088E0,0E0,2.1516113E0,1.7422836E0,3.87146E-1,0E0,0E0,0E0,0E0,0E0,0E0,6.2524414E-1,0E0,0E0,0E0,1.9640658E0,0E0,0E0,0E0,0E0,0E0],"parents":[2147483647,0,0,1,1,2,2,3,3,4,4,5,5,6,6,7,7,8,8,9,9,10,10,11,11,15,15,19,19,21,21,22,22,24,24,25,25,26,26,33,33,37,37],"right_children":[2,4,6,8,10,12,14,16,18,20,22,24,-1,-1,-1,26,-1,-1,-1,28,-1,30,32,-1,34,36,38,-1,-1,-1,-1,-1,-1,40,-1,-1,-1,42,-1,-1,-1,-1,-1],"split_conditions":[1.4803824E-1,5.9420414E-2,8.090523E-2,7.2098875E-1,-7.994932E-2,3.3698514E-1,7.586604E-1,5.1300675E-1,-7.794003E-3,-1.0005979E-2,2.8287051E-2,-1.5176761E-2,-4.5672346E-2,-5.3403743E-2,1.0438559E-1,-5.7512347E-2,1.4174255E-2,1.0707139E-1,-4.5410413E-2,4.0235896E-2,-5.015718E-2,1.0315524E0,-3.0282117E-2,-3.521699E-2,5.428597E-1,-1.5457739E-1,-1.5692149E-1,1.7555849E-1,-2.9330805E-2,-5.729968E-2,1.7840035E-2,1.1718845E-1,-4.9088392E-2,-7.4991345E-2,1.6949506E-2,5.5835105E-2,-4.903413E-2,1.21893965E-1,-5.8170505E-2,5.0789256E-2,1.8174963E-1,-5.0864458E-2,5.918292E-2],"split_indices":[500,500,240,244,240,324,218,541,80,100,431,54,0,0,0,130,0,0,0,472,0,560,95,0,158,29,433,0,0,0,0,0,0,197,0,0,0,263,0,0,0,0,0],"split_type":[0,0,0,0,0,0,0,0,0,0,0,0,0,0,0,0,0,0,0,0,0,0,0,0,0,0,0,0,0,0,0,0,0,0,0,0,0,0,0,0,0,0,0],"sum_hessian":[2.6810737E3,2.0333297E3,6.477441E2,1.9618602E3,7.14695E1,6.359192E2,1.1824901E1,1.9572758E3,4.584528E0,1.8620466E1,5.2849033E1,6.325392E2,3.3799858E0,1.00835705E1,1.7413301E0,1.9561372E3,1.13848E0,1.1115367E0,3.4729915E0,1.2640074E1,5.9803925E0,4.5536957E1,7.3120775E0,1.5045801E0,6.310346E2,6.414444E0,1.9497228E3,1.1638181E1,1.001893E0,4.447636E1,1.0605948E0,2.0965378E0,5.2155395E0,6.3002277E2,1.0118375E0,1.2144375E0,5.2000065E0,7.7043033E0,1.9420184E3,1.292011E0,6.287308E2,6.533476E0,1.1708274E0],"tree_param":{"num_deleted":"0","num_feature":"576","num_nodes":"43","size_leaf_vector":"1"}},{"base_weights":[1.0738678E-3,-4.401329E-1,1.361154E0,-4.931312E-1,8.8529664E-1,1.5092103E0,-3.5312566E-1,-5.261214E-1,2.9293352E-1,1.5122569E-1,-4.7832048E-1,1.5238153E0,-5.7719316E-2,-5.470618E-1,1.2203994E-1,-5.3599656E-1,7.226962E-1,1.0352474E0,-4.9129364E-1,5.8068644E-2,-5.554117E-2,1.5282067E0,-3.20824E-2,-4.6956427E-2,8.851119E-2,-5.6690585E-2,1.4129691E-2,-5.426485E-1,1.0373775E0,1.4282276E-1,-4.8611812E-2,4.504424E-1,1.3463541E0,-5.635941E-2,8.86144E-2,1.5326138E0,2.047892E-2,-5.597888E-1,-3.09739E-1,1.4947096E-1,-3.7420474E-2,-4.4722665E-2,7.356651E-1,1.4395871E0,-9.912326E-4,6.920004E-3,1.5357158E0,-8.518657E-2,-5.642148E-1,6.6676515E-1,-5.360842E-1,-1.2936094E-3,8.595799E-1,3.1978257E-2,1.5153518E0,8.309032E-1,1.5391392E0,-5.2387666E-2,5.2840745E-1,-5.664803E-1,6.260111E-2,1.524057E0,-2.2869714E-1,-2.1057709E-1,-5.7258297E-2,9.856452E-1,4.654266E-3,1.5614967E-1,4.7060274E-2,3.8276035E-3,1.1186981E-1,6.935659E-1,1.5415363E-1,1.2381148E-1,-7.667575E-2,-5.7204217E-1,-3.3332384E-1,1.2038864E-1,-4.7155127E-2,1.2313535E-2,1.6589676E-1,8.100041E-2,-5.2497037E-2,-5.228578E-2,1.0206757E-1,1.0805832E0,1.4619874E-2,1.0426892E-1,7.110459E-3,-4.2864416E-2,5.38957E-2,-2.6222286E-1,-5.7322806E-1,8.583416E-1,-5.367209E-1,1.1890013E0,1.7288953E-2,-4.9713485E-2,6.503427E-2,-3.798921E-2,-5.7495452E-2,1.4617269E-1,-3.7884843E-2,-5.6241304E-2,1.3488282E-2,1.350572E-1,3.948527E-2],"categories":[],"categories_nodes":[],"categories_segments":[],"categories_sizes":[],"default_left":[0,0,0,0,0,0,0,0,0,0,0,0,0,0,0,0,0,0,0,0,0,0,0,0,0,0,0,0,0,0,0,0,0,0,0,0,0,0,0,0,0,0,0,0,0,0,0,0,0,0,0,0,0,0,0,0,0,0,0,0,0,0,0,0,0,0,0,0,0,0,0,0,0,0,0,0,0,0,0,0,0,0,0,0,0,0,0,0,0,0,0,0,0,0,0,0,0,0,0,0,0,0,0,0,0,0,0],"id":18,"left_children":[1,3,5,7,9,11,13,15,17,-1,19,21,23,25,-1,27,29,31,33,-1,-1,35,-1,-1,-1,-1,-1,37,39,-1,-1,41,43,-1,-1,45,-1,47,49,-1,-1,-1,51,53,-1,-1,55,57,59,61,63,-1,65,-1,67,69,71,-1,73,75,77,79,81,83,-1,85,-1,-1,-1,-1,-1,87,-1,-1,89,91,93,-1,-1,-1,-1,-1,-1,-1,-1,95,-1,-1,-1,-1,-1,97,99,101,103,105,-1,-1,-1,-1,-1,-1,-1,-1,-1,-1,-1],"loss_changes":[1.5784652E3,1.399542E2,1.640625E2,4.9695892E1,6.631532E1,1.3664917E1,1.6546028E1,2.3002716E1,4.5677605E1,0E0,2.3573422E0,5.251831E0,2.9170923E0,7.222996E-1,0E0,1.9611206E1,1.3327915E1,6.704212E0,4.324498E0,0E0,0E0,3.1074219E0,0E0,0E0,0E0,0E0,0E0,7.064392E0,5.7275267E0,0E0,0E0,4.2863464E0,3.2673187E0,0E0,0E0,2.5473633E0,0E0,3.496643E0,2.832101E1,0E0,0E0,0E0,1.1342387E0,1.5582695E0,0E0,0E0,1.2817383E-1,4.790758E0,2.4093628E0,1.8966774E1,1.1062622E0,0E0,1.0203643E0,0E0,3.3950806E-1,1.0959857E0,1.0498047E-1,0E0,3.3108988E0,1.9695435E0,4.7867565E0,2.1621761E0,4.34332E0,5.1449823E0,0E0,5.5583E-1,0E0,0E0,0E0,0E0,0E0,6.7675126E-1,0E0,0E0,1.3109889E0,4.4696045E-1,1.0448641E1,0E0,0E0,0E0,0E0,0E0,0E0,0E0,0E0,5.709133E-1,0E0,0E0,0E0,0E0,0E0,2.0472534E0,3.2183838E-1,5.3259435E0,6.9384384E-1,3.4927177E-1,0E0,0E0,0E0,0E0,0E0,0E0,0E0,0E0,0E0,0E0,0E0],"parents":[2147483647,0,0,1,1,2,2,3,3,4,4,5,5,6,6,7,7,8,8,10,10,11,11,12,12,13,13,15,15,16,16,17,17,18,18,21,21,27,27,28,28,31,31,32,32,35,35,37,37,38,38,42,42,43,43,46,46,47,47,48,48,49,49,50,50,52,52,54,54,55,55,56,56,58,58,59,59,60,60,61,61,62,62,63,63,65,65,71,71,74,74,75,75,76,76,85,85,91,91,92,92,93,93,94,94,95,95],"right_children":[2,4,6,8,10,12,14,16,18,-1,20,22,24,26,-1,28,30,32,34,-1,-1,36,-1,-1,-1,-1,-1,38,40,-1,-1,42,44,-1,-1,46,-1,48,50,-1,-1,-1,52,54,-1,-1,56,58,60,62,64,-1,66,-1,68,70,72,-1,74,76,78,80,82,84,-1,86,-1,-1,-1,-1,-1,88,-1,-1,90,92,94,-1,-1,-1,-1,-1,-1,-1,-1,96,-1,-1,-1,-1,-1,98,100,102,104,106,-1,-1,-1,-1,-1,-1,-1,-1,-1,-1,-1],"split_conditions":[2.8325063E-1,2.1632657E0,9.7647406E-2,3.6424816E-1,6.673495E-2,2.3479365E-1,4.3924055E-1,4.9451938E-1,7.39083E-3,1.5122569E-1,-6.995374E-2,1.7527761E0,2.4287023E-1,2.0643376E-1,1.2203994E-1,4.687981E-1,9.706282E-2,1.0993567E-1,8.952707E-1,5.8068644E-2,-5.554117E-2,1.8007164E-1,-3.20824E-2,-4.6956427E-2,8.851119E-2,-5.6690585E-2,1.4129691E-2,3.7422386E-1,3.1621358E-4,1.4282276E-1,-4.8611812E-2,-2.3553877E-3,4.7952894E-2,-5.635941E-2,8.86144E-2,-1.43105E-1,2.047892E-2,-1.7146994E-1,2.6536597E-2,1.4947096E-1,-3.7420474E-2,-4.4722665E-2,-9.875127E-2,-3.1049983E-3,-9.912326E-4,6.920004E-3,-1.5266208E-1,-3.125147E-3,3.3142133E0,-4.01551E-3,-1.0951919E-1,-1.2936094E-3,6.758269E-3,3.1978257E-2,1.4261042E-1,9.177485E-2,-1.6932517E-2,-5.2387666E-2,-1.4794115E-2,1.12396546E-1,-1.0446444E-1,-1.7183191E-3,-5.1061213E-2,2.3212805E-2,-5.7258297E-2,-8.3899125E-2,4.654266E-3,1.5614967E-1,4.7060274E-2,3.8276035E-3,1.1186981E-1,-6.9094084E-2,1.5415363E-1,1.2381148E-1,0E0,-1.6788808E-1,-7.617114E-2,1.2038864E-1,-4.7155127E-2,1.2313535E-2,1.6589676E-1,8.100041E-2,-5.2497037E-2,-5.228578E-2,1.0206757E-1,-4.4658754E-2,1.4619874E-2,1.0426892E-1,7.110459E-3,-4.2864416E-2,5.38957E-2,-6.91804E-2,-1.4204216E-1,-6.005267E-3,2.3953162E-1,2.5867394E-3,1.7288953E-2,-4.9713485E-2,6.503427E-2,-3.798921E-2,-5.7495452E-2,1.4617269E-1,-3.7884843E-2,-5.6241304E-2,1.3488282E-2,1.350572E-1,3.948527E-2],"split_indices":[549,209,217,250,66,381,369,303,381,0,494,66,11,234,0,220,60,480,562,0,0,341,0,0,0,0,0,102,20,0,0,98,374,0,0,238,0,284,558,0,0,0,321,209,0,0,493,56,278,374,476,0,320,0,282,4,332,0,220,491,111,562,257,189,0,469,0,0,0,0,0,37,0,0,437,285,29,0,0,0,0,0,0,0,0,29,0,0,0,0,0,38,284,180,274,50,0,0,0,0,0,0,0,0,0,0,0],"split_type":[0,0,0,0,0,0,0,0,0,0,0,0,0,0,0,0,0,0,0,0,0,0,0,0,0,0,0,0,0,0,0,0,0,0,0,0,0,0,0,0,0,0,0,0,0,0,0,0,0,0,0,0,0,0,0,0,0,0,0,0,0,0,0,0,0,0,0,0,0,0,0,0,0,0,0,0,0,0,0,0,0,0,0,0,0,0,0,0,0,0,0,0,0,0,0,0,0,0,0,0,0,0,0,0,0,0,0],"sum_hessian":[2.6284417E3,1.9851425E3,6.4329913E2,1.9094208E3,7.57217E1,5.922667E2,5.1032425E1,1.8328298E3,7.659092E1,5.179742E1,2.3924282E1,5.868246E2,5.442116E0,4.6013607E1,5.0188203E0,1.8190165E3,1.3813312E1,3.9182476E1,3.7408443E1,1.1801414E0,2.274414E1,5.8560205E2,1.2225418E0,4.1369767E0,1.3051391E0,4.4895786E1,1.1178203E0,1.8120107E3,7.0057416E0,8.607806E0,5.205506E0,1.44562025E1,2.4726274E1,3.6104206E1,1.3042387E0,5.8350085E2,2.1011815E0,1.6864943E3,1.2551652E2,5.2469254E0,1.7588165E0,3.3487706E0,1.1107431E1,2.307838E1,1.6478955E0,1.2835653E0,5.822173E2,1.5769365E1,1.6707249E3,2.3252823E1,1.02263695E2,1.7046723E0,9.40276E0,1.7933503E0,2.128503E1,3.9922616E0,5.7822504E2,9.280484E0,6.4888816E0,1.6648041E3,5.920804E0,1.1520971E1,1.1731852E1,1.0993126E1,9.127057E1,7.9567304E0,1.446029E0,1.9910982E1,1.3740481E0,1.365229E0,2.6270328E0,2.4552999E0,5.757697E2,2.5047956E0,3.984086E0,1.6245964E3,4.0207615E1,1.4878963E0,4.4329076E0,1.1800426E0,1.0340929E1,2.2188458E0,9.513006E0,9.227991E0,1.7651358E0,6.890218E0,1.0665126E0,1.1405095E0,1.3147905E0,2.72811E0,1.2559758E0,7.0418186E0,1.6175547E3,5.3927083E0,3.4814907E1,5.878191E0,1.0120265E0,5.962253E0,1.0795653E0,1.6272953E1,1.6012817E3,3.5028548E0,1.8898534E0,3.368873E1,1.1261785E0,4.30224E0,1.5759511E0],"tree_param":{"num_deleted":"0","num_feature":"576","num_nodes":"107","size_leaf_vector":"1"}},{"base_weights":[-3.0290577E-4,-4.9916238E-1,1.4103432E0,-5.548855E-1,9.0151477E-1,-4.228147E-1,1.502359E0,-5.700702E-1,-8.539546E-2,1.2695318E0,-5.4289747E-2,-5.5977013E-2,8.576768E-2,1.5255946E0,-3.092136E-1,-3.411383E-2,-5.74272E-1,1.1738122E0,-5.442955E-1,1.3692211E0,-2.5424746E-1,1.5322237E0,-3.9612602E-2,6.0337313E-2,-5.067385E-2,1.4238568E-1,-5.3053E-2,2.3350481E-2,-5.753113E-1,1.4260279E-1,-3.9643504E-2,1.317555E-2,-5.6495626E-2,1.4270419E0,-8.18508E-3,-4.1998424E-2,1.6169826E-2,2.1048699E-2,1.5361778E0,5.372809E-3,-5.75826E-1,1.9909153E-3,1.4672561E0,1.5053995E-2,1.5383232E-1,-5.7741117E-2,-3.70863E-1,1.646944E-2,1.4899098E0,-5.4077704E-2,7.435721E-2,1.5111549E0,4.3101728E-2,4.7824882E-2,1.5300167E-1],"categories":[],"categories_nodes":[],"categories_segments":[],"categories_sizes":[],"default_left":[0,0,0,0,0,0,0,0,0,0,0,0,0,0,0,0,0,0,0,0,0,0,0,0,0,0,0,0,0,0,0,0,0,0,0,0,0,0,0,0,0,0,0,0,0,0,0,0,0,0,0,0,0,0,0],"id":19,"left_children":[1,3,5,7,9,11,13,15,17,19,-1,-1,-1,21,23,25,27,29,31,33,35,37,-1,-1,-1,-1,-1,-1,39,-1,-1,-1,-1,41,-1,-1,-1,-1,43,-1,45,-1,47,-1,-1,-1,49,-1,51,-1,-1,53,-1,-1,-1],"loss_changes":[1.8519E3,1.5223749E2,1.16604004E2,1.3284973E1,4.043137E1,6.379671E0,2.8036865E1,4.0599976E0,3.5178734E1,9.444527E0,0E0,0E0,0E0,8.846069E0,1.9505272E0,1.1723984E1,1.6433716E0,7.0136395E0,6.958742E-1,4.8457108E0,3.7954134E-1,3.0461426E0,0E0,0E0,0E0,0E0,0E0,0E0,6.1224365E-1,0E0,0E0,0E0,0E0,3.0409775E0,0E0,0E0,0E0,0E0,1.678833E0,0E0,3.687744E-1,0E0,1.31073E0,0E0,0E0,0E0,3.5385349E0,0E0,5.119324E-1,0E0,0E0,2.4810791E-1,0E0,0E0,0E0],"parents":[2147483647,0,0,1,1,2,2,3,3,4,4,5,5,6,6,7,7,8,8,9,9,13,13,14,14,15,15,16,16,17,17,18,18,19,19,20,20,21,21,28,28,33,33,38,38,40,40,42,42,46,46,48,48,51,51],"right_children":[2,4,6,8,10,12,14,16,18,20,-1,-1,-1,22,24,26,28,30,32,34,36,38,-1,-1,-1,-1,-1,-1,40,-1,-1,-1,-1,42,-1,-1,-1,-1,44,-1,46,-1,48,-1,-1,-1,50,-1,52,-1,-1,54,-1,-1,-1],"split_conditions":[1.9083352E-1,4.1124898E-1,1.1669623E-1,2.8853533E-1,5.720604E-2,1.1276267E0,1.6008604E-1,-1.5979753E-1,-7.9130255E-2,8.2602304E-1,-5.4289747E-2,-5.5977013E-2,8.576768E-2,1.7934468E-1,1.275226E-1,-1.2020894E-1,-2.0223276E-1,-3.0588094E-2,-1.7154516E-1,-5.765435E-3,5.4298586E-1,1.7545845E-1,-3.9612602E-2,6.0337313E-2,-5.067385E-2,1.4238568E-1,-5.3053E-2,2.3350481E-2,-1.5814209E-1,1.4260279E-1,-3.9643504E-2,1.317555E-2,-5.6495626E-2,2.1980636E-2,-8.18508E-3,-4.1998424E-2,1.6169826E-2,2.1048699E-2,1.6265932E-2,5.372809E-3,3.229638E-1,1.9909153E-3,-1.0801979E-1,1.5053995E-2,1.5383232E-1,-5.7741117E-2,1.3899283E0,1.646944E-2,7.707041E-2,-5.4077704E-2,7.435721E-2,-6.2209334E-2,4.3101728E-2,4.7824882E-2,1.5300167E-1],"split_indices":[162,8,341,178,377,556,388,454,343,209,0,0,0,31,232,81,259,198,458,353,73,73,0,0,0,0,0,0,211,0,0,0,0,13,0,0,0,0,2,0,8,0,2,0,0,0,531,0,285,0,0,23,0,0,0],"split_type":[0,0,0,0,0,0,0,0,0,0,0,0,0,0,0,0,0,0,0,0,0,0,0,0,0,0,0,0,0,0,0,0,0,0,0,0,0,0,0,0,0,0,0,0,0,0,0,0,0,0,0,0,0,0,0],"sum_hessian":[2.629608E3,1.9430985E3,6.865093E2,1.8693346E3,7.376392E1,3.2640656E1,6.538686E2,1.8105616E3,5.8772964E1,5.888251E1,1.48814125E1,2.9995342E1,2.645315E0,6.457441E2,8.124529E0,1.4154998E1,1.7964066E3,1.5281931E1,4.3491035E1,5.536203E1,3.5204816E0,6.4372614E2,2.017922E0,1.080025E0,7.044504E0,3.1208405E0,1.1034158E1,2.0209696E0,1.7943857E3,1.3246157E1,2.0357747E0,1.1302559E0,4.236078E1,5.3256477E1,2.105549E0,2.5104604E0,1.0100212E0,2.0817633E0,6.416444E2,1.382504E0,1.7930032E3,1.5212573E0,5.173522E1,1.1019202E0,6.405425E2,1.7774397E3,1.5563469E1,1.0257528E0,5.070947E1,1.3951139E1,1.6123291E0,4.9293358E1,1.4161096E0,1.3566414E0,4.7936718E1],"tree_param":{"num_deleted":"0","num_feature":"576","num_nodes":"55","size_leaf_vector":"1"}},{"base_weights":[6.668949E-4,-4.8363093E-1,1.3853252E0,4.6156216E-1,-5.5219144E-1,1.4693505E0,-4.9823588E-1,-1.7918786E-1,1.2644538E0,-5.6092983E-1,2.1506663E-1,1.5080456E0,-3.4217215E-1,-5.5973973E-2,5.7490755E-2,-5.225536E-1,1.2506716E0,1.3201408E0,-3.6965344E-2,-5.6405663E-1,6.95066E-1,1.061885E0,-4.556164E-1,1.5175325E0,-4.320976E-2,-5.3645898E-2,7.284282E-2,5.2110907E-2,-5.695036E-2,1.4516206E0,-3.45241E-2,1.361269E0,-3.185902E-2,-5.697761E-1,-1.8492122E-1,1.2167082E-1,-3.4090895E-2,1.28718E-1,-8.947446E-4,1.856597E-2,-5.298782E-2,1.5249643E0,-4.0551744E-2,1.5299441E-1,4.4820435E-2,6.5849113E-1,1.503568E0,-5.7138866E-1,5.432326E-2,1.149934E0,-5.537909E-2,1.53026E0,2.919967E-1,8.371697E-1,-8.819743E-3,1.533894E0,3.9535552E-2,-5.7192075E-1,1.362131E-2,1.0302222E-1,-4.45361E-2,1.5102178E-1,-3.1412657E-2,1.5322585E0,1.5408583E-2,-3.7707817E-2,1.0123681E-1,1.030481E0,3.0837473E-1,6.710619E-1,1.5695043E-1,-5.724646E-1,2.1510331E-3,1.5381648E-1,9.9935794E-1,1.569558E-2,1.1763555E-1,-3.285994E-2,7.055593E-2,8.318995E-3,9.760629E-2,-5.735443E-1,-2.2613813E-1,-3.9335575E-2,1.359878E-1,-5.7461107E-1,-2.36836E-1,-4.8022207E-2,5.5453934E-2,-5.7516783E-2,-2.963115E-2,6.261034E-2,-4.8535306E-2],"categories":[],"categories_nodes":[],"categories_segments":[],"categories_sizes":[],"default_left":[0,0,0,0,0,0,0,0,0,0,0,0,0,0,0,0,0,0,0,0,0,0,0,0,0,0,0,0,0,0,0,0,0,0,0,0,0,0,0,0,0,0,0,0,0,0,0,0,0,0,0,0,0,0,0,0,0,0,0,0,0,0,0,0,0,0,0,0,0,0,0,0,0,0,0,0,0,0,0,0,0,0,0,0,0,0,0,0,0,0,0,0,0],"id":20,"left_children":[1,3,5,7,9,11,13,15,17,19,21,23,25,-1,-1,27,29,31,-1,33,35,37,39,41,-1,-1,-1,-1,-1,43,-1,45,-1,47,49,-1,-1,-1,-1,-1,-1,51,-1,-1,-1,53,55,57,59,61,-1,63,65,67,-1,69,-1,71,-1,-1,-1,-1,-1,73,-1,-1,-1,75,77,79,-1,81,-1,-1,83,-1,-1,-1,-1,-1,-1,85,87,-1,-1,89,91,-1,-1,-1,-1,-1,-1],"loss_changes":[1.7642662E3,1.2656766E2,1.0862988E2,6.8324E1,1.230835E1,4.6281372E1,2.2926683E0,3.7227306E1,5.845543E0,7.451782E0,1.2520309E1,1.2424805E1,3.400454E0,0E0,0E0,3.274702E0,5.2216816E0,4.2857285E0,0E0,3.7841797E0,3.0693069E0,2.343666E0,6.9490314E-1,9.715332E0,0E0,0E0,0E0,0E0,0E0,3.5682678E-1,0E0,4.6045685E0,0E0,1.8088989E0,1.4491368E1,0E0,0E0,0E0,0E0,0E0,0E0,3.69458E0,0E0,0E0,0E0,1.5680256E0,9.3092346E-1,7.4139404E-1,3.1242282E0,3.8592358E0,0E0,1.5002441E0,2.2848117E0,6.1573887E-1,0E0,3.0419922E-1,0E0,5.8062744E-1,0E0,0E0,0E0,0E0,0E0,4.4665527E-1,0E0,0E0,0E0,6.130991E-1,1.2113934E0,5.4599345E-1,0E0,5.2819824E-1,0E0,0E0,5.43746E0,0E0,0E0,0E0,0E0,0E0,0E0,4.9365234E-1,1.6784148E0,0E0,0E0,1.0028076E-1,1.8561621E0,0E0,0E0,0E0,0E0,0E0,0E0],"parents":[2147483647,0,0,1,1,2,2,3,3,4,4,5,5,6,6,7,7,8,8,9,9,10,10,11,11,12,12,15,15,16,16,17,17,19,19,20,20,21,21,22,22,23,23,29,29,31,31,33,33,34,34,41,41,45,45,46,46,47,47,48,48,49,49,51,51,52,52,53,53,55,55,57,57,63,63,67,67,68,68,69,69,71,71,74,74,81,81,82,82,85,85,86,86],"right_children":[2,4,6,8,10,12,14,16,18,20,22,24,26,-1,-1,28,30,32,-1,34,36,38,40,42,-1,-1,-1,-1,-1,44,-1,46,-1,48,50,-1,-1,-1,-1,-1,-1,52,-1,-1,-1,54,56,58,60,62,-1,64,66,68,-1,70,-1,72,-1,-1,-1,-1,-1,74,-1,-1,-1,76,78,80,-1,82,-1,-1,84,-1,-1,-1,-1,-1,-1,86,88,-1,-1,90,92,-1,-1,-1,-1,-1,-1],"split_conditions":[1.0116654E-1,-9.031979E-3,2.0384322E-1,2.2890912E-1,8.311384E-1,1.4277104E-1,4.5911127E-1,6.7291915E-2,2.2339359E-1,3.6198384E-1,2.0225781E-1,2.7414852E-1,3.79967E-1,-5.5973973E-2,5.7490755E-2,-1.7130509E-2,4.7095533E-2,8.773472E-2,-3.6965344E-2,2.3641288E-1,2.5802748E-2,-3.3548328E-3,-2.7978305E-2,2.2734939E-1,-4.320976E-2,-5.3645898E-2,7.284282E-2,5.2110907E-2,-5.695036E-2,-6.488803E-2,-3.45241E-2,-1.1549651E-1,-3.185902E-2,5.633043E-1,-8.205987E-3,1.2167082E-1,-3.4090895E-2,1.28718E-1,-8.947446E-4,1.856597E-2,-5.298782E-2,2.223958E-1,-4.0551744E-2,1.5299441E-1,4.4820435E-2,6.1099738E-2,7.671462E-2,4.5844212E-1,-2.9627051E-2,1.380752E-1,-5.537909E-2,3.932158E-1,1.9447327E-1,-2.5414608E-2,-8.819743E-3,-1.0175699E-1,3.9535552E-2,3.0322018E-1,1.362131E-2,1.0302222E-1,-4.45361E-2,1.5102178E-1,-3.1412657E-2,1.329462E-1,1.5408583E-2,-3.7707817E-2,1.0123681E-1,-9.7193625E-3,-3.2729139E-3,3.7012264E-4,1.5695043E-1,1.7072442E-1,2.1510331E-3,1.5381648E-1,2.2407843E-1,1.569558E-2,1.1763555E-1,-3.285994E-2,7.055593E-2,8.318995E-3,9.760629E-2,2.9118043E-1,7.790467E-2,-3.9335575E-2,1.359878E-1,3.638106E-1,-1.09000295E-1,-4.8022207E-2,5.5453934E-2,-5.7516783E-2,-2.963115E-2,6.261034E-2,-4.8535306E-2],"split_indices":[211,267,309,353,353,150,100,19,423,156,267,212,516,0,0,438,523,29,0,216,3,1,521,167,0,0,0,0,0,213,0,227,0,252,493,0,0,0,0,0,0,523,0,0,0,81,276,348,33,5,0,11,19,569,0,324,0,19,0,0,0,0,0,279,0,0,0,255,51,16,0,156,0,0,19,0,0,0,0,0,0,516,250,0,0,100,123,0,0,0,0,0,0],"split_type":[0,0,0,0,0,0,0,0,0,0,0,0,0,0,0,0,0,0,0,0,0,0,0,0,0,0,0,0,0,0,0,0,0,0,0,0,0,0,0,0,0,0,0,0,0,0,0,0,0,0,0,0,0,0,0,0,0,0,0,0,0,0,0,0,0,0,0,0,0,0,0,0,0,0,0,0,0,0,0,0,0,0,0,0,0,0,0,0,0,0,0,0,0],"sum_hessian":[2.6289292E3,1.9481836E3,6.807456E2,1.3136867E2,1.816815E3,6.518851E2,2.8860573E1,7.349365E1,5.7875008E1,1.796622E3,2.0193005E1,6.3841565E2,1.3469382E1,2.7748657E1,1.1119146E0,5.977408E1,1.3719576E1,5.615354E1,1.7214661E0,1.7927098E3,3.9120636E0,8.666815E0,1.152619E1,6.355259E2,2.8897676E0,1.1822767E1,1.646615E0,2.1384623E0,5.7635616E1,1.2265573E1,1.4540031E0,5.4943897E1,1.2096432E0,1.7655724E3,2.7137478E1,2.485891E0,1.4261726E0,6.993417E0,1.6733985E0,1.040556E0,1.0485634E1,6.332855E2,2.2403893E0,1.0890741E1,1.3748318E0,1.0199375E1,4.4744522E1,1.7611064E3,4.465918E0,5.417029E0,2.172045E1,6.303371E2,2.948422E0,8.132206E0,2.0671694E0,4.3178833E1,1.5656886E0,1.7599747E3,1.131669E0,1.152772E0,3.313146E0,4.3219376E0,1.0950916E0,6.2930975E2,1.0273441E0,1.7757089E0,1.172713E0,5.2604218E0,2.8717837E0,2.4979753E0,4.068086E1,1.7583987E3,1.5761287E0,6.205457E2,8.764055E0,1.0498254E0,4.210596E0,1.1692725E0,1.7025113E0,1.2880621E0,1.2099133E0,1.7522797E3,6.119025E0,1.7834369E0,6.9806185E0,1.7460414E3,6.2382536E0,4.906871E0,1.2121545E0,1.7414906E3,4.5508103E0,1.0551256E0,5.183128E0],"tree_param":{"num_deleted":"0","num_feature":"576","num_nodes":"93","size_leaf_vector":"1"}},{"base_weights":[-8.149908E-5,-5.120668E-1,1.4305842E0,-5.5786794E-1,4.672321E-1,1.501549E0,-4.8205346E-1,-5.6493175E-1,4.448461E-1,1.4566022E0,-4.624213E-1,-2.097526E-1,1.5161467E0,6.2082466E-2,-5.551523E-2,-5.6853217E-1,6.3952684E-1,1.3917007E-1,-5.0357826E-2,1.5204617E-1,-3.3235207E-2,-5.6545783E-2,1.00439034E-1,5.7805855E-2,-4.7703084E-2,1.5240036E0,-4.163794E-2,-5.700838E-1,5.8654364E-2,1.3313381E-1,-3.9660767E-2,1.5281621E0,-3.3428345E-2,-5.7112575E-1,6.476223E-2,1.5315763E0,-3.0858336E-2,-5.7165945E-1,1.8848425E-2,1.5349106E0,-3.0026598E-2,-5.747451E-1,-3.9816177E-1,1.5373914E0,1.0086628E-2,-5.752871E-1,9.275219E-3,5.509912E-1,-5.5983465E-2,1.5390109E-1,4.4505768E-2,-5.758167E-2,-2.3494163E-1,1.3683373E-1,-4.0716477E-2,1.6066505E-2,-4.0927928E-2],"categories":[],"categories_nodes":[],"categories_segments":[],"categories_sizes":[],"default_left":[0,0,0,0,0,0,0,0,0,0,0,0,0,0,0,0,0,0,0,0,0,0,0,0,0,0,0,0,0,0,0,0,0,0,0,0,0,0,0,0,0,0,0,0,0,0,0,0,0,0,0,0,0,0,0,0,0],"id":21,"left_children":[1,3,5,7,9,11,13,15,17,19,21,23,25,-1,-1,27,29,-1,-1,-1,-1,-1,-1,-1,-1,31,-1,33,-1,-1,-1,35,-1,37,-1,39,-1,41,-1,43,-1,45,47,49,-1,51,-1,53,-1,-1,-1,-1,55,-1,-1,-1,-1],"loss_changes":[1.9275752E3,8.718686E1,9.485925E1,1.3368225E1,8.081738E1,1.7029907E1,2.4060235E0,8.340149E0,1.2836872E1,5.355171E0,7.4720993E0,1.6521518E0,1.070813E1,0E0,0E0,3.6222534E0,4.7948594E0,0E0,0E0,0E0,0E0,0E0,0E0,0E0,0E0,5.6186523E0,0E0,2.6947021E0,0E0,0E0,0E0,4.609497E0,0E0,8.5028076E-1,0E0,4.4836426E0,0E0,7.510376E-1,0E0,2.1843262E0,0E0,7.032471E-1,5.7160473E0,4.7607422E-1,0E0,1.8817139E-1,0E0,4.9684706E0,0E0,0E0,0E0,0E0,3.7456387E-1,0E0,0E0,0E0,0E0],"parents":[2147483647,0,0,1,1,2,2,3,3,4,4,5,5,6,6,7,7,8,8,9,9,10,10,11,11,12,12,15,15,16,16,25,25,27,27,31,31,33,33,35,35,37,37,39,39,41,41,42,42,43,43,45,45,47,47,52,52],"right_children":[2,4,6,8,10,12,14,16,18,20,22,24,26,-1,-1,28,30,-1,-1,-1,-1,-1,-1,-1,-1,32,-1,34,-1,-1,-1,36,-1,38,-1,40,-1,42,-1,44,-1,46,48,50,-1,52,-1,54,-1,-1,-1,-1,56,-1,-1,-1,-1],"split_conditions":[1.4925496E-1,1.23642735E-1,2.1553147E-1,1.0731077E0,-1.8257273E-2,4.451313E-2,-6.302269E-2,1.6865865E0,5.8675356E-2,6.0664967E-2,6.878536E-1,-4.8180133E-2,3.5621646E-1,6.2082466E-2,-5.551523E-2,4.9966508E-1,1.2433018E-1,1.3917007E-1,-5.0357826E-2,1.5204617E-1,-3.3235207E-2,-5.6545783E-2,1.00439034E-1,5.7805855E-2,-4.7703084E-2,1.1160564E0,-4.163794E-2,8.6208856E-1,5.8654364E-2,1.3313381E-1,-3.9660767E-2,4.064673E-1,-3.3428345E-2,5.877499E-1,6.476223E-2,2.5662032E-1,-3.0858336E-2,4.120736E-1,1.8848425E-2,6.4663976E-1,-3.0026598E-2,1.7250439E0,-8.187196E-2,2.5290316E-1,1.0086628E-2,1.4809877E0,9.275219E-3,-7.259058E-3,-5.5983465E-2,1.5390109E-1,4.4505768E-2,-5.758167E-2,5.6220934E-2,1.3683373E-1,-4.0716477E-2,1.6066505E-2,-4.0927928E-2],"split_indices":[246,417,226,456,476,435,95,521,558,96,456,144,19,0,0,177,73,0,0,0,0,0,0,0,0,165,0,448,0,0,0,421,0,90,0,243,0,352,0,373,0,143,97,463,0,521,0,273,0,0,0,0,61,0,0,0,0],"split_type":[0,0,0,0,0,0,0,0,0,0,0,0,0,0,0,0,0,0,0,0,0,0,0,0,0,0,0,0,0,0,0,0,0,0,0,0,0,0,0,0,0,0,0,0,0,0,0,0,0,0,0,0,0,0,0,0,0],"sum_hessian":[2.6295745E3,1.9370234E3,6.925509E2,1.8508889E3,8.61345E1,6.679817E2,2.4569254E1,1.8383748E3,1.2514224E1,4.145248E1,4.4682022E1,5.5367064E0,6.6244495E2,1.0614653E0,2.350779E1,1.8334222E3,4.9525433E0,6.0284104E0,6.485814E0,4.0168682E1,1.2837989E0,4.2323498E1,2.3585243E0,1.1080205E0,4.428686E0,6.5997314E2,2.471805E0,1.8314684E3,1.9538139E0,2.7988708E0,2.1536725E0,6.586768E2,1.296368E0,1.8304332E3,1.0352101E0,6.5762054E2,1.0562586E0,1.8293953E3,1.0379602E0,6.565875E2,1.0330085E0,1.7951558E3,3.42395E1,6.553817E2,1.2058418E0,1.7938373E3,1.3184962E0,4.6328416E0,2.9606655E1,6.540033E2,1.3784204E0,1.7903597E3,3.477466E0,2.2691069E0,2.363735E0,1.0876955E0,2.3897705E0],"tree_param":{"num_deleted":"0","num_feature":"576","num_nodes":"57","size_leaf_vector":"1"}},{"base_weights":[-7.966937E-4,-5.5148435E-1,1.4617467E0,-5.630816E-1,8.2902116E-1,1.5192988E0,-4.237303E-1,-5.719079E-1,2.2198632E-1,1.402764E-1,-4.782636E-2,1.5281385E0,-4.3484006E-2,-5.522063E-2,1.0094398E-1,-5.759045E-1,-3.673254E-1,1.2874227E0,-5.357005E-2,-3.1545926E-2,1.5317528E0,-5.769224E-1,-1.8875192E-1,7.0655805E-1,-5.341747E-1,1.4392795E-1,1.1698703E-2,1.5340835E0,1.0252831E-2,-5.7745922E-2,-2.6800936E-1,-4.680432E-2,6.041739E-2,-3.766884E-2,1.3444328E-1,1.3834673E-2,-5.612436E-2,4.5419764E-2,1.5355445E-1,1.9894782E-2,-4.346242E-2],"categories":[],"categories_nodes":[],"categories_segments":[],"categories_sizes":[],